
//<![CDATA[

// a few things don't have var in front of them - they update already existing variables the game needs
lanesSide = 4;
patchesAhead = 35;
patchesBehind = 10;
trainIterations = 1000000;

var num_inputs = (lanesSide * 2 + 1) * (patchesAhead + patchesBehind);
var num_actions = 5;
var temporal_window = 0;
var network_size = num_inputs * temporal_window + num_actions * temporal_window + num_inputs;

var layer_defs = [];
layer_defs.push({
    type: 'input',
    out_sx: 1,
    out_sy: 1,
    out_depth: network_size
});
layer_defs.push({
    type: 'fc',
    num_neurons: 120,
    activation: 'relu'
});
layer_defs.push({
    type: 'fc',
    num_neurons: 90,
    activation: 'relu'
});
layer_defs.push({
    type: 'regression',
    num_neurons: num_actions
});

var tdtrainer_options = {
    learning_rate: 0.0015,
    momentum: 0.0,
    batch_size: 64,
    l2_decay: 0.01
};

var opt = {};
opt.temporal_window = temporal_window;
opt.experience_size = 3000;
opt.start_learn_threshold = 500;
opt.gamma = 0.85;
opt.learning_steps_total = 10000;
opt.learning_steps_burnin = 1000;
opt.epsilon_min = 0.0;
opt.epsilon_test_time = 0.0;
opt.layer_defs = layer_defs;
opt.tdtrainer_options = tdtrainer_options;

brain = new deepqlearn.Brain(num_inputs, num_actions, opt);

learn = function (state, lastReward) {
    brain.backward(lastReward);
    var action = brain.forward(state);

    draw_net();
    draw_stats();

    return action;
}

//]]>
    
/*###########*/
if (brain) {
brain.value_net.fromJSON({"layers":[{"out_depth":405,"out_sx":1,"out_sy":1,"layer_type":"input"},{"out_depth":120,"out_sx":1,"out_sy":1,"layer_type":"fc","num_inputs":405,"l1_decay_mul":0,"l2_decay_mul":1,"filters":[{"sx":1,"sy":1,"depth":405,"w":{"0":0.016353627822000175,"1":-0.014530988498695038,"2":-0.029374274995392424,"3":0.04058780808995877,"4":0.009840212599905604,"5":-0.014559204661611685,"6":-0.03373427631719219,"7":-0.03772046315184078,"8":0.023690683690198833,"9":-0.009077679765465842,"10":0.024209097860087778,"11":0.047037307691666246,"12":-0.021929028210398563,"13":0.054107820536511995,"14":-0.025927832417018633,"15":0.02202907433137338,"16":0.04226695903577512,"17":0.023409414567649826,"18":-0.020696969332907773,"19":-0.008468243771657296,"20":-0.047014048675973925,"21":-0.037014200318170216,"22":-0.007132695854783538,"23":0.0010826630366741231,"24":0.026927754357201954,"25":-0.03541774742784373,"26":0.010401288318281889,"27":0.046972456154910504,"28":-0.00585137063313305,"29":-0.05163538583327977,"30":0.03130081936420348,"31":0.04265636316162062,"32":-0.011815404140044934,"33":-0.01146695076666451,"34":-0.01579826275072547,"35":0.002723502760096993,"36":-0.03873218037229976,"37":-0.12602128622560596,"38":0.014995550388632657,"39":-0.017607470330171248,"40":-0.08280111690995351,"41":0.02427640118313903,"42":-0.012170482469703255,"43":-0.08816026941830221,"44":0.036680434678261806,"45":-0.026274393216003635,"46":-0.04641930579388569,"47":0.04134959065192355,"48":0.06319196543730532,"49":0.08123790256726912,"50":0.07180552295759544,"51":-0.04852527380334059,"52":0.017536864500402757,"53":0.11507700842619743,"54":0.008151342527611976,"55":0.059244222381109705,"56":-0.06873251021454992,"57":0.020441693655909955,"58":0.031193745531285257,"59":0.052961110623833456,"60":-0.028804972534691956,"61":-0.04712890047790851,"62":0.04552722214596684,"63":-0.08115959898195306,"64":0.053675553355880076,"65":-0.035921581525909546,"66":-0.04685257644125513,"67":-0.0031810306936023657,"68":-0.0511959801882283,"69":-0.10904441722981839,"70":-0.04267160709429812,"71":-0.1492695602403821,"72":0.03862333502962682,"73":-0.02231292343912778,"74":0.022388548807666303,"75":-0.016825601876617986,"76":0.037510906165097134,"77":-0.028249442287053048,"78":-0.022472773347990308,"79":-0.029097522183531056,"80":0.0002026810624592603,"81":0.06425086904937279,"82":0.01502158024928107,"83":0.08173692423076337,"84":-0.07368340089031927,"85":0.026984765290956544,"86":0.055738372046297655,"87":-0.009386285410225592,"88":0.04662173711115202,"89":0.10708413917043824,"90":0.03550388347493809,"91":-0.011634431132394773,"92":-0.015099027765635776,"93":-0.025558833838394565,"94":-0.02783387219351217,"95":0.09004071602208036,"96":0.02577409140362998,"97":0.06096656705211904,"98":0.10908335983194255,"99":0.025044511802614387,"100":-0.04094662032774975,"101":0.05389369301345426,"102":-0.10861638623419925,"103":0.019776935456759976,"104":0.004520574648004908,"105":-0.04903316745915129,"106":-0.028663506016261858,"107":-0.05693270818137675,"108":0.04587613069604039,"109":0.02907577315742081,"110":0.017802588321899734,"111":-0.03860659017929202,"112":0.06229789922988073,"113":-0.0417203268973873,"114":-0.02087024902376024,"115":-0.04377325924869617,"116":0.011115421167537788,"117":-0.07256949210053423,"118":-0.010358136860203251,"119":-0.04685547263842422,"120":0.05477730714944492,"121":0.03764207556482195,"122":0.0015552705971003302,"123":-0.038060930969355394,"124":-0.04189015481872957,"125":0.06659546604029119,"126":0.0004342602681114945,"127":-0.06368645323043681,"128":0.10355985662050175,"129":-0.010215144046407464,"130":-0.04240670363793538,"131":-0.02651817441394199,"132":0.00043563064629560487,"133":0.0021071501230766508,"134":-0.052400586035212714,"135":-0.07896589725964882,"136":-0.06881616575272836,"137":-0.0038650977068017786,"138":-0.010835374032378496,"139":0.03378111842707689,"140":-0.07781776479052753,"141":-0.038742065187926306,"142":-0.027935893240653636,"143":0.013603018605278433,"144":0.05202795589631869,"145":0.08015601214511064,"146":-0.057112652010774596,"147":-0.0267209562642558,"148":-0.003622450224740022,"149":0.026987104340443168,"150":-0.029203828869590824,"151":-0.1056551630676702,"152":0.06862648003888454,"153":0.02831197187456421,"154":-0.06922112949524233,"155":-0.020388031438593888,"156":0.06452061738316574,"157":0.037529353037027584,"158":-0.012123637735576908,"159":-0.09587454975904154,"160":0.05674965811421285,"161":0.026393754666355174,"162":-0.17722854566556787,"163":0.09935706777210931,"164":-0.039126175554688246,"165":0.08786168904196193,"166":-0.05833751910678722,"167":0.07833733336205967,"168":0.08925156114990576,"169":-0.01741059787722898,"170":-0.012135062797340623,"171":-0.09742372915094015,"172":0.022932730939394415,"173":0.012917117725929347,"174":-0.06270727618375825,"175":0.08525843672060403,"176":-0.10561515766643739,"177":0.08072579345379595,"178":-0.061277346998416755,"179":-0.07386301012881243,"180":0.028463552348575272,"181":0.00018265447125370463,"182":-0.042219385305556634,"183":-0.030521447081483827,"184":0.017656461942831037,"185":0.012720121079664326,"186":0.06108578163606957,"187":0.018774230733956714,"188":0.06620927161022573,"189":-0.0039560845639047175,"190":-0.02168075775427783,"191":-0.0035839452108300104,"192":-0.04770399680828523,"193":-0.023540046919730266,"194":-0.0020075934893593692,"195":-0.08641611688946287,"196":0.06858575647736175,"197":-0.00039143181872611156,"198":-0.01493361380683798,"199":0.07319962936185334,"200":-0.052936334940443364,"201":-0.06652565926535312,"202":-0.0570170395631406,"203":0.11272102035320845,"204":0.012186543760610655,"205":0.0005769694598923713,"206":0.04020015166142758,"207":0.006071217854717499,"208":-0.014179463903048991,"209":-0.02011524170842274,"210":0.0472887733962322,"211":0.04001356818166757,"212":-0.05555363526119876,"213":0.010669640602400459,"214":0.043395814665294505,"215":0.02052454016274299,"216":0.055936572400605386,"217":-0.06088265993270801,"218":0.06379910473925979,"219":-0.11718596543488993,"220":0.00930201329227684,"221":0.023486679884418233,"222":-0.02600676342744994,"223":-0.07702157361211574,"224":0.03127170184906923,"225":0.09678125256735039,"226":-0.07746410500279716,"227":0.0714020378738321,"228":0.021272754294287936,"229":-0.03381193493770146,"230":-0.035746075699921775,"231":-0.009102502478212749,"232":-0.13593356756093328,"233":-0.0330757977160893,"234":-0.010788927758391978,"235":-0.027123249628428114,"236":0.0162078822348547,"237":-0.03248857798998903,"238":-0.08610199943140723,"239":0.052624293159370596,"240":0.07934802042003679,"241":-0.00884931526056981,"242":-0.031000300493728677,"243":0.04440400549178053,"244":-0.008327777576989152,"245":0.022811806615987695,"246":-0.02045005210078347,"247":0.09499315152988416,"248":-0.09307244598750515,"249":-0.054360415938859714,"250":0.03762567586715895,"251":-0.05818830454578094,"252":-0.030881721308705697,"253":0.0490379915558287,"254":-0.10415343446066556,"255":-0.03782674128993752,"256":0.08331404673385304,"257":-0.09057636958713114,"258":0.06190079132457571,"259":-0.0026108888230807086,"260":0.10573453978152308,"261":-0.0006618650354768437,"262":-0.07799984919854598,"263":0.033655268668270955,"264":-0.019123809717112222,"265":0.05314724232986372,"266":0.07050466676647568,"267":0.023354645739591392,"268":0.01868433594345851,"269":0.05425454433015792,"270":0.03057621569401887,"271":-0.022833502417730536,"272":-0.02021829706920482,"273":-0.032305905622040644,"274":-0.0015639043461937725,"275":-0.06064082191657687,"276":-0.02142912293190133,"277":0.0711341479942735,"278":-0.005273701001868577,"279":-0.003092742993645482,"280":-0.04926284650623709,"281":-0.02233287729292554,"282":-0.03662606391478933,"283":0.02374225136878668,"284":-0.0688410021554925,"285":-0.016886012641805868,"286":0.04321619126750256,"287":-0.10376835238173115,"288":-0.035591947912215434,"289":-0.10957787081857785,"290":0.05710414238203418,"291":-0.03598701432518246,"292":-0.0037995520592322635,"293":0.10986519373388877,"294":-0.03037960151161705,"295":-0.007730935497671286,"296":0.013057020622769979,"297":-0.016355034451148377,"298":-0.05015227205623621,"299":0.011976415691843652,"300":0.0541794912195372,"301":0.0019169975879593357,"302":-0.03936948428162846,"303":0.01510859648082028,"304":-0.0038158390783232144,"305":0.07023675090213329,"306":-0.01710947082719439,"307":0.016767265188220495,"308":0.041776981485825426,"309":-0.027520445004250504,"310":-0.06250706951977081,"311":-0.06516600788756555,"312":0.10151587835352123,"313":0.05890452702061857,"314":0.03410597997000424,"315":-0.06666018127365471,"316":-0.04631022154884864,"317":0.06205637003936576,"318":-0.08360864793231182,"319":-0.010322995358710556,"320":-0.01849614867495158,"321":-0.08207415991490236,"322":-0.04778011285578481,"323":-0.004741673532272076,"324":0.019549243080364792,"325":-0.022358015025022212,"326":-0.051077830080911255,"327":-0.0000027120891923810285,"328":-0.10991871676445061,"329":-0.05461969385434924,"330":-0.013665530488562741,"331":-0.055039668346549456,"332":-0.07122957272585423,"333":-0.003206284592125548,"334":-0.04113875764046672,"335":0.0168692869014105,"336":-0.035854964824807066,"337":-0.014702993119880882,"338":0.061353229774323954,"339":0.07070749020312835,"340":0.05537162648658455,"341":-0.06432483222031384,"342":0.023867317047218017,"343":-0.018465839200515127,"344":-0.08704749713023263,"345":0.006774304577890269,"346":-0.030468526279719504,"347":0.02423117410389952,"348":-0.03657542667314198,"349":-0.006697641912107224,"350":-0.03365336022516781,"351":-0.03987746588266774,"352":-0.0005112361714809632,"353":0.018431919426737036,"354":0.06468549418751027,"355":-0.0873196416110481,"356":0.014828378602606836,"357":0.02318434978156524,"358":0.015582316175074513,"359":-0.03739252041466025,"360":0.018031920777582585,"361":0.0900423549587014,"362":0.10376155743687128,"363":-0.05694508841350673,"364":-0.03139945222282107,"365":-0.04976296977675578,"366":-0.021741448650976176,"367":-0.003803954050690309,"368":0.04629449510680166,"369":0.04176554152464152,"370":-0.024815918574068577,"371":-0.0037656585749898004,"372":-0.05725876606640481,"373":0.03767733784254017,"374":0.026085054425496093,"375":0.00464760708273358,"376":0.015074455886745906,"377":-0.003913800201479088,"378":-0.009402531926682698,"379":0.004769591351947692,"380":0.0055073462932837165,"381":0.05544989341563416,"382":-0.09173303080063598,"383":0.015697903392619575,"384":-0.011146974346884636,"385":-0.03747149700342547,"386":-0.03917008056873545,"387":0.05263446246621492,"388":0.012457086812442226,"389":-0.026307937469881953,"390":0.023676029325906275,"391":-0.005032196940438333,"392":0.011399167935463753,"393":0.059730488640539085,"394":0.04881290417990891,"395":0.012436025434319634,"396":-0.02204518040353288,"397":-0.03596041330362312,"398":0.06827550731678583,"399":-0.047859191139371704,"400":-0.000597234737643856,"401":-0.02155042691944204,"402":-0.03018624993989272,"403":0.011916837821112325,"404":0.029551380571481826}},{"sx":1,"sy":1,"depth":405,"w":{"0":0.021994551513493218,"1":0.009344841179092706,"2":0.02329238443141458,"3":0.09243992120615774,"4":0.03950137892334942,"5":0.06542098220689536,"6":-0.042610144593421675,"7":0.06716790446462208,"8":0.0008359160775340249,"9":0.02665730463154355,"10":-0.038018095498345776,"11":-0.03777794171423608,"12":0.06710975913490817,"13":0.07104906989649455,"14":-0.003912001446094309,"15":-0.04251114727843066,"16":-0.010926685063021618,"17":0.10116510053380863,"18":0.01688028424928518,"19":-0.04688697727814226,"20":0.022127818720519526,"21":0.04816146534599426,"22":-0.004927227318897683,"23":0.04375883888235621,"24":-0.022849123210404845,"25":-0.03133773051914942,"26":0.01616003098776424,"27":0.015043323158765215,"28":0.030753617133677996,"29":0.04389563524969333,"30":0.011258106780800145,"31":0.05447983351619876,"32":0.06163941780707964,"33":-0.04496030659078653,"34":-0.0009065171830395241,"35":-0.03497859555052776,"36":0.0836875549596202,"37":-0.029812818392524497,"38":0.09829820359038237,"39":0.009008054430944323,"40":0.07210920226027118,"41":0.03304070893951325,"42":-0.02778099092590837,"43":-0.019059253737665465,"44":0.06125698076041292,"45":0.06006690368637948,"46":0.008420091968504666,"47":0.04430342023593848,"48":-0.058668939784693785,"49":0.07170693970664563,"50":-0.00684542052047362,"51":-0.004562908625811326,"52":0.03441137289178378,"53":-0.04465131379127171,"54":-0.020072527281032995,"55":0.032192688974191204,"56":0.011786674593682331,"57":0.04892346006887776,"58":-0.044320876978360235,"59":0.013635493696851492,"60":-0.04373612937247183,"61":-0.03352226255194448,"62":-0.046711917329661706,"63":-0.01961873918682069,"64":-0.05147740780082522,"65":0.06715459568253586,"66":0.06838074158717243,"67":-0.03572123605171783,"68":0.08408405727954556,"69":0.02288797223195084,"70":-0.060962847843338025,"71":-0.026798155101045055,"72":-0.0070092939736142975,"73":0.03352787327716196,"74":0.06173791336926543,"75":-0.007368050470979138,"76":0.06774013292250468,"77":-0.011448333457135118,"78":0.1206222890412445,"79":0.0540401503545994,"80":0.024027679838144095,"81":0.0011857455474922438,"82":0.03703016217473814,"83":0.008087488522825871,"84":-0.031939176242011626,"85":-0.02968402021510765,"86":-0.0416616125463187,"87":-0.03541404737615543,"88":0.04495063915941631,"89":-0.04008010395036941,"90":-0.047975067600733265,"91":-0.0433163881800854,"92":0.009337021994744097,"93":-0.01039112216294069,"94":-0.005761730181427526,"95":-0.05505880379369985,"96":-0.024194266196697137,"97":-0.003972049509378473,"98":0.015625646490135706,"99":0.011122961026027185,"100":-0.01392737434962233,"101":0.020247253583129995,"102":0.047103813216643725,"103":0.11770662175887305,"104":0.02005616902055504,"105":-0.04039563499581643,"106":-0.008268183105711525,"107":-0.028392286415917057,"108":-0.012401642969704725,"109":0.017093752234602744,"110":-0.013957524316547211,"111":-0.015093302845178855,"112":-0.0026835396582946705,"113":-0.030408421857581913,"114":-0.05017104732520256,"115":-0.044273110698110775,"116":0.06265454773604667,"117":0.07804100386139241,"118":0.03301770816718575,"119":-0.07346990672051697,"120":0.002563140072801113,"121":0.040336070822797776,"122":0.005389205768832596,"123":0.003823567782851053,"124":0.015141565012506127,"125":-0.04777834163415888,"126":-0.0424746173592675,"127":-0.024820163561013384,"128":-0.0430776376868557,"129":0.027855398378605165,"130":-0.031549747393431055,"131":0.05176460117957689,"132":0.054677626408559575,"133":0.04084586639517575,"134":-0.06530696122131524,"135":-0.04702263514734539,"136":-0.03683916449628149,"137":0.025117385680237563,"138":-0.053075722906598295,"139":0.033483088372311155,"140":-0.00771792859728974,"141":0.008995879286814525,"142":0.06136134914673069,"143":0.07296040459845314,"144":0.011034146005325285,"145":0.026033825205039503,"146":0.026540610576847114,"147":-0.055808231794394356,"148":0.008344455169130913,"149":-0.04002067348403043,"150":0.024259875107404627,"151":0.07324341124323418,"152":0.051972126468448225,"153":0.02172328743116104,"154":-0.05693359559187605,"155":0.04054863699924824,"156":-0.0907162137386954,"157":0.0806084719066514,"158":-0.016105778224463987,"159":0.007235070685761545,"160":-0.014517619785507804,"161":0.1671475157239193,"162":0.07829652118321613,"163":0.036563828370399856,"164":0.06355000987725126,"165":0.010170970728266499,"166":0.04523025542555358,"167":0.08306298180035307,"168":-0.061544864733138055,"169":0.04326468633537469,"170":0.012795208173190981,"171":-0.02306243511261537,"172":-0.09218257025222462,"173":-0.04786088239229987,"174":-0.031044567507109117,"175":0.019005088598197006,"176":0.05667607532157148,"177":-0.04500863915290368,"178":0.038605576183026485,"179":0.016850895755957874,"180":0.03545542036800427,"181":0.04051508007080764,"182":0.001005371686926706,"183":0.03262358451209128,"184":0.10516070041538685,"185":0.04996069396476008,"186":-0.03342612619836919,"187":0.011700174625958685,"188":0.03804140611585112,"189":-0.04250613578030583,"190":0.061856212772944875,"191":0.038154625363551485,"192":-0.0544289341920664,"193":0.0004562926103071794,"194":-0.022649718519950176,"195":0.0531476868089842,"196":0.052029592629489085,"197":0.06901288931003312,"198":0.060124223731232176,"199":0.016588269973769516,"200":0.0367590496082117,"201":-0.08454006826349986,"202":-0.012515839301033388,"203":-0.008647311523046541,"204":-0.019684435359507965,"205":0.043550678026210085,"206":0.06459983851158746,"207":0.002019419383111026,"208":-0.03359955268093921,"209":0.0461128000423396,"210":-0.04292107428355394,"211":-0.009847030967967307,"212":-0.009037160551183625,"213":-0.03801973481060081,"214":0.02369733252181886,"215":0.018175594029672087,"216":-0.050410012740774536,"217":-0.019503460924250243,"218":-0.08680375888235395,"219":-0.02573642524039259,"220":0.0017022868861851154,"221":0.07864728385266895,"222":-0.04323032024315383,"223":0.03396913163199653,"224":-0.007427963011507679,"225":0.02751796707137071,"226":-0.049792757896786104,"227":0.022810691111521515,"228":0.09306006879614485,"229":0.1600113625260615,"230":0.07161673588175112,"231":-0.049187546841459116,"232":0.07810932194666412,"233":-0.09810785686501004,"234":0.03622778832715193,"235":0.0030818039224782285,"236":0.07620967985248411,"237":0.01776515412673218,"238":0.08060420214541487,"239":0.060032483152897775,"240":-0.029022584144890406,"241":-0.053869486666999374,"242":-0.025280244088605065,"243":0.06711428457765174,"244":0.025049342781139464,"245":0.03356463442816347,"246":-0.10354159909079301,"247":-0.05369354412150142,"248":0.04133136521446797,"249":0.005392349104894511,"250":-0.07277972487367551,"251":-0.021240030870808894,"252":0.029258567367688927,"253":0.011047309323504912,"254":-0.0044854474010288855,"255":-0.0888058405307913,"256":0.16898384443091835,"257":0.023061340224983354,"258":0.06517366550092651,"259":-0.03498769481631846,"260":-0.0152679238428193,"261":-0.0015170813875580733,"262":0.0521807212049441,"263":-0.011828055399151017,"264":-0.18656153666731418,"265":0.13656254828604647,"266":0.03843652865912828,"267":-0.08015648290064359,"268":0.02621972168429546,"269":-0.08694944147495179,"270":-0.011891856896184242,"271":-0.0589232447298072,"272":0.024577285146655917,"273":-0.1266590722179349,"274":0.13889124274207285,"275":0.07258293408508941,"276":-0.007120965468354544,"277":0.03512186755638575,"278":0.042829854190735615,"279":0.07295203542875764,"280":-0.10361549408794553,"281":-0.04615118862553404,"282":-0.17818304050366496,"283":0.1739211660114347,"284":0.04302989300598578,"285":0.08899464678723105,"286":0.027298255490955273,"287":-0.0703096932379631,"288":0.06935056237582797,"289":0.018184269052963428,"290":-0.05666043452073885,"291":-0.142982540455145,"292":-0.00945066232922428,"293":0.009517016004252204,"294":0.031824149979221505,"295":-0.04736078468110457,"296":-0.02594668492140431,"297":0.03689302541041726,"298":-0.08376094677435925,"299":0.025629590047391543,"300":-0.05929961927313625,"301":-0.07127723433413145,"302":-0.04808924032275914,"303":0.008845261443960192,"304":0.003600895921899641,"305":-0.04106228938422236,"306":-0.024604276057334073,"307":0.0343419692028754,"308":0.10638066240687152,"309":-0.07187167012562404,"310":-0.09777250918601596,"311":0.10463512307181848,"312":-0.01333172314912706,"313":0.017926313346544796,"314":-0.03829878739879743,"315":-0.07349092973240473,"316":-0.03455582334144724,"317":0.08803970566158847,"318":-0.20951998031780222,"319":0.043275772022609245,"320":-0.04127915581684678,"321":0.1087918533291773,"322":-0.057834454911553285,"323":0.00316125901913417,"324":-0.0009801798950861322,"325":0.026820099125028588,"326":-0.04825928814223117,"327":-0.17511028735363984,"328":0.01446556168393447,"329":0.11250567672806057,"330":-0.06538900467977006,"331":-0.041101416651295554,"332":0.030520177545552578,"333":0.0804590476697984,"334":-0.03378865870646198,"335":-0.07676557914156619,"336":-0.10185929887811478,"337":0.05397865570226989,"338":0.0005982680474447318,"339":0.020984481435756076,"340":-0.020188258060398506,"341":0.0835794894425423,"342":0.008699758022755308,"343":-0.05186638897270062,"344":0.03919204268182731,"345":-0.12681762673478694,"346":-0.0003663343573246892,"347":0.0004456406675732714,"348":0.036013404079082906,"349":-0.0162250601827503,"350":-0.04407358750684585,"351":-0.05957321084110879,"352":0.04659526644663279,"353":0.04736715465170533,"354":-0.16568137002518996,"355":-0.024980507404653275,"356":0.1265999610322264,"357":0.055856408321795795,"358":-0.058286998169263346,"359":-0.050885308666307756,"360":-0.0015371582468720639,"361":0.010685197858231498,"362":0.037217578364487885,"363":0.0038753107663174594,"364":-0.01511931393477099,"365":-0.009115123490165224,"366":0.041304932947437645,"367":0.009121290884660214,"368":-0.031039188104497274,"369":0.09647080828810117,"370":-0.006488564651672317,"371":-0.002052439681290358,"372":0.06383161933170257,"373":-0.026386438813617935,"374":0.0375602555096839,"375":0.04291138599443472,"376":-0.04754343192351723,"377":0.04129158139967089,"378":0.01681134407167389,"379":0.01339612618193046,"380":0.05909079655830872,"381":0.05421816812264472,"382":-0.005932005778166126,"383":0.05786832551080071,"384":0.032043210694818906,"385":-0.08530308656796806,"386":-0.01567478051542055,"387":-0.052124804382232146,"388":0.007947106713307006,"389":0.04339644283038049,"390":0.08738586655661967,"391":0.09021255612587022,"392":-0.030606998545975567,"393":-0.04348478283292183,"394":0.05823198031910147,"395":-0.030872758735691737,"396":-0.036772753567083226,"397":0.03518614251737612,"398":-0.005232173819177545,"399":0.03847937367096743,"400":0.07071157794843179,"401":-0.12863257722393306,"402":0.012747860641755917,"403":-0.05739367251120339,"404":-0.019944994952660083}},{"sx":1,"sy":1,"depth":405,"w":{"0":-0.035797437997163575,"1":-0.08940199817612662,"2":0.010996175715775403,"3":0.01476717923680182,"4":0.05749291218788189,"5":0.16880746896634502,"6":0.04067223188638982,"7":-0.057400036531918275,"8":-0.02071585330899564,"9":-0.035669309453242475,"10":-0.0022827612884432887,"11":-0.09414898415298954,"12":-0.07237923816804333,"13":0.05940581677158372,"14":0.0024990772481079896,"15":0.004314895962956566,"16":0.014323484039469904,"17":0.03416099368851573,"18":0.08791315069162182,"19":0.025030703603557476,"20":0.018420628667824124,"21":0.05453515632823441,"22":0.06920939050131036,"23":-0.05450872477990269,"24":0.06613034657925712,"25":-0.01974094983769195,"26":0.04804167278102636,"27":0.050347126948022944,"28":0.008384517374776992,"29":-0.008781457513630948,"30":0.05698543707709862,"31":-0.05160142145125451,"32":0.007884640776441977,"33":-0.0018918805663384892,"34":-0.1560740648417371,"35":-0.06779099898821023,"36":-0.06030870331836905,"37":-0.029295786336646475,"38":-0.023405762772903394,"39":0.0948101009159679,"40":-0.03663680807189145,"41":-0.02516489852092009,"42":0.03050972346223999,"43":-0.007543149207049508,"44":-0.02867017013115684,"45":-0.01840494778444399,"46":0.029522658579861253,"47":0.036168290854052036,"48":0.003567171893356775,"49":0.016905479569379284,"50":-0.09430305962748736,"51":0.06898881413073589,"52":-0.0010982588745734548,"53":0.038897833711406135,"54":-0.006172894683529489,"55":-0.06518053328991616,"56":0.043263320217586214,"57":-0.012630032388785864,"58":-0.03412333673256818,"59":-0.003020608333128751,"60":0.032857220099127685,"61":0.012536403641283292,"62":-0.009560706756691507,"63":-0.017643015267622082,"64":-0.03570577989113277,"65":0.00840299658235021,"66":-0.017221308112156854,"67":0.10636971073205098,"68":0.11088852877946402,"69":0.05394643383373732,"70":-0.06784408460747357,"71":-0.09194324655926545,"72":-0.02966461411152653,"73":0.05314654864287017,"74":-0.04765661075251938,"75":-0.0036206514556018105,"76":-0.012169026893053802,"77":-0.04686177032493833,"78":0.07765429221534301,"79":0.05591012920023697,"80":0.00721582799228961,"81":0.04915675118860775,"82":0.028928022015701188,"83":-0.020389749264501,"84":-0.022775905994499763,"85":-0.015097372053294702,"86":-0.12525151254000919,"87":-0.007268934572150708,"88":-0.01908354709669404,"89":-0.0291831867507057,"90":0.07092161754325117,"91":0.05484526786431228,"92":-0.04389664034864311,"93":0.003603794415630214,"94":0.03810278294559571,"95":-0.044137200019573365,"96":-0.08653402690247819,"97":-0.012884978699668355,"98":-0.06893315228994486,"99":-0.014790955394403586,"100":0.04543134558565299,"101":-0.01883790484524277,"102":0.05315008849595557,"103":0.051860739161710176,"104":-0.027117787880766957,"105":0.02884355030889026,"106":-0.021809072233350896,"107":0.04344047992411026,"108":0.04274354665227949,"109":-0.059187219942338345,"110":0.016792174483822885,"111":-0.07169552257385188,"112":0.008345581735051361,"113":-0.03188222548171596,"114":-0.030921990562187248,"115":0.04143871620867078,"116":-0.01262601857845031,"117":-0.012673493784837698,"118":-0.04539449227795117,"119":0.16631089472369928,"120":-0.017357398861732244,"121":0.00553209642693748,"122":0.02883799239617963,"123":0.058241443776020634,"124":0.006088612846529394,"125":-0.05101478723980751,"126":-0.025986899765199144,"127":-0.04442152740235258,"128":0.03178305101419819,"129":-0.044252557974641636,"130":-0.05276852709696095,"131":-0.04853074251752707,"132":0.031420330476907794,"133":0.05424384843141726,"134":0.07818765522241021,"135":-0.14906686665426738,"136":-0.02063257731064427,"137":-0.03640392084573865,"138":0.008265554117997342,"139":-0.03535338394451395,"140":-0.021951471652394743,"141":0.08015505019565553,"142":-0.025994807820017122,"143":0.014483500216064373,"144":-0.013027023599976236,"145":0.0645119362294242,"146":-0.018543400547342163,"147":-0.01253028401240404,"148":0.0006622223095226209,"149":0.021073372178304395,"150":-0.03905099843031136,"151":-0.01220596181827336,"152":-0.07584034133739315,"153":0.003187565465751054,"154":0.08379732273654539,"155":-0.02837131851438642,"156":-0.09682641852345798,"157":0.0565699927971118,"158":-0.09208453104261781,"159":-0.05221516498056683,"160":0.008778581525041901,"161":0.10778373113953696,"162":-0.08405739844756419,"163":0.01582164326837069,"164":-0.00749227311970644,"165":0.03761490899464136,"166":0.010007948801423873,"167":0.012673129007223937,"168":0.12685335424480176,"169":0.03792761752493218,"170":0.0395859929352602,"171":0.026256430739566673,"172":0.022421831137067423,"173":0.02312899866126152,"174":-0.006040836148089329,"175":0.01614249176269397,"176":0.030949606736263336,"177":-0.06536659615495197,"178":0.04270932310188954,"179":-0.03831947177782841,"180":0.005067935372013119,"181":0.022608738068311613,"182":-0.020467774979365444,"183":0.022772468292104293,"184":0.04610339490969786,"185":0.05970774202670576,"186":0.08424505980277718,"187":-0.007161353379034542,"188":-0.07189982380577054,"189":0.03000172472134272,"190":-0.028936414879497777,"191":0.062126195540560106,"192":0.026102978947981068,"193":0.043027828325827626,"194":-0.0014284199901019009,"195":0.07558540089575393,"196":-0.048168871527133485,"197":-0.02137904383236425,"198":0.03055412601941004,"199":0.03813974318340821,"200":0.05177927339550708,"201":0.07270773473976719,"202":0.012674523798290522,"203":-0.022744253755734405,"204":0.0002644482780010421,"205":-0.013497913896796618,"206":-0.016268125976504722,"207":-0.027762238662373914,"208":-0.018751810812447176,"209":0.043340258868046426,"210":0.01959873450710242,"211":0.009010913842776894,"212":0.01928766057812057,"213":-0.02938663166590498,"214":0.02490078874847439,"215":-0.03301707655675621,"216":-0.03147671243712946,"217":0.05243182215868404,"218":-0.03896353399483764,"219":-0.0458241533617338,"220":-0.052695612286782684,"221":-0.040691527666176994,"222":0.01027273143683941,"223":0.09041197911303551,"224":-0.05472683205361402,"225":0.04873651357419207,"226":-0.012798660363220095,"227":-0.01656339486451287,"228":-0.07072492722747789,"229":-0.00019930428233782483,"230":0.02923548323403109,"231":0.024255631488189346,"232":0.010662273291380947,"233":0.019225496121511684,"234":0.07499550701310549,"235":0.05944153371822057,"236":0.00677717111401677,"237":-0.04532938995549627,"238":0.01708701843827985,"239":-0.005398211813299846,"240":0.017675720087141446,"241":0.013618461010065806,"242":0.049011205290638946,"243":0.006259691082623273,"244":0.04418458024877389,"245":-0.09411589125079005,"246":-0.044915281701816155,"247":-0.014457848362332628,"248":-0.03911982317456614,"249":0.010124535594200826,"250":0.04731827279926225,"251":-0.0031108066194182487,"252":-0.0003360973490662512,"253":-0.13886626937868501,"254":0.0295242445635601,"255":-0.000907260691173988,"256":-0.006800125311404408,"257":-0.014542432209517047,"258":-0.10382838313914736,"259":-0.06677965762836349,"260":0.014007798020658678,"261":0.01390563268244293,"262":-0.03357680293014399,"263":-0.02124327484936828,"264":0.011717268274546909,"265":-0.021172823159324585,"266":0.011864231743962953,"267":-0.0488251791589564,"268":-0.03408758119934069,"269":0.0821112122329172,"270":0.034904208308296596,"271":-0.02922958714848716,"272":0.013721205587804857,"273":0.02947959147102066,"274":-0.04936335796013004,"275":-0.02056297146216748,"276":0.06329319189322544,"277":-0.04236446827347616,"278":0.04554324208763119,"279":-0.011879988365767294,"280":-0.00003780801350651955,"281":-0.02951146699345739,"282":-0.0340954067290332,"283":-0.024192854347699914,"284":0.01601478582665603,"285":0.048988383646232855,"286":-0.021052476591198622,"287":0.008205742462826121,"288":0.05232677095762155,"289":0.011322034222332161,"290":-0.009630187595266357,"291":-0.00531307079036844,"292":0.04041823895592722,"293":0.02430853693924017,"294":-0.02612658921314804,"295":-0.07281040015461979,"296":-0.03297963987260876,"297":0.07469589884282823,"298":0.023257677385938105,"299":0.0020579173295795596,"300":-0.03794320540588766,"301":-0.04904496490785032,"302":-0.016031696231903397,"303":0.052172372493872125,"304":0.007532442363726114,"305":-0.030488275129555775,"306":-0.02486153124261671,"307":-0.046309372657132086,"308":0.01211489787499189,"309":0.08479225478438071,"310":-0.028299872245031953,"311":0.03569342221425747,"312":0.008660896949213716,"313":0.03281626345065004,"314":-0.1220177510692246,"315":-0.01937708335768896,"316":-0.11465798771464754,"317":0.04118533013318863,"318":0.024571890468683442,"319":-0.13848346742886872,"320":0.07823529211178333,"321":0.024227030624412265,"322":-0.0635575404641497,"323":0.02525436977971901,"324":-0.030823654781983567,"325":-0.013845346929454591,"326":0.0009223830589505626,"327":-0.02990010477238839,"328":-0.0985534584695372,"329":-0.04006756132317624,"330":0.02917370921320599,"331":-0.013477181188135482,"332":0.013679347398700751,"333":-0.005367170698508194,"334":0.03684713696464412,"335":0.04798206697424335,"336":0.0431937775072128,"337":-0.1450342633227533,"338":-0.06101788308977756,"339":-0.023533120184523443,"340":-0.06445541742708545,"341":0.058618671008534476,"342":-0.007782727612868308,"343":0.03907537692802937,"344":0.05348718096162741,"345":0.09089275862524514,"346":-0.010713812522197398,"347":-0.009965826180179028,"348":0.010502475360019485,"349":0.0008211944896984953,"350":-0.09317180633913909,"351":0.008912387224113048,"352":0.024519927483280076,"353":-0.0029285042209275403,"354":0.07048201269060037,"355":-0.0786426018830319,"356":0.08819776656784914,"357":-0.03421757145921706,"358":0.032752154186066244,"359":0.008652900396077468,"360":0.004553890172140141,"361":-0.027569933624626997,"362":-0.026625223141093744,"363":0.01344069769777536,"364":-0.0650161517442932,"365":0.03629201656312148,"366":0.08731997179231483,"367":0.06850661746768952,"368":-0.05268095624584398,"369":-0.07068428380610603,"370":-0.004292298330983939,"371":0.10213206597692484,"372":0.06613742501793952,"373":-0.0544860756692209,"374":-0.08604346936597113,"375":-0.04184893563225342,"376":-0.03919583331513202,"377":-0.096350037407906,"378":0.016665977663375086,"379":0.044333743382882825,"380":-0.000932381385147915,"381":0.038572514132590524,"382":-0.07827419926288244,"383":-0.04392760712834957,"384":-0.04268533674124529,"385":0.03844936907600339,"386":0.006374027205025823,"387":0.01853881936805049,"388":-0.017936927706043826,"389":0.009027568497451371,"390":0.11362981912676184,"391":-0.001280156295846215,"392":-0.004150723295763767,"393":-0.007456583336379963,"394":0.005891408176478519,"395":0.06518458955685168,"396":0.026858188075304535,"397":-0.04331149719927427,"398":0.017938031591818292,"399":-0.07639348690830695,"400":-0.033204428762171834,"401":-0.0028005867288354966,"402":0.012649483490364698,"403":-0.04252757279910101,"404":-0.05090641665258032}},{"sx":1,"sy":1,"depth":405,"w":{"0":0.04410093142743416,"1":-0.01329387350398737,"2":0.06425901356087126,"3":0.09465565919210925,"4":0.007732455768110992,"5":0.03182323132584324,"6":0.022139934000754667,"7":0.05054981344285818,"8":-0.03211235685326135,"9":-0.030799084294517522,"10":-0.026784087318313582,"11":0.020168241378780878,"12":-0.008383233953911667,"13":-0.03404905858919146,"14":0.0230688976270627,"15":0.03482831388280572,"16":-0.016532083964690074,"17":-0.03237284831586002,"18":0.03566079226717923,"19":0.0302898717491017,"20":0.00791635368956649,"21":0.03964455510460742,"22":-0.060774534152661736,"23":0.007738740415461352,"24":-0.04893948366882881,"25":0.13637620270674702,"26":-0.019644753192256822,"27":-0.027437902220004636,"28":0.06848615846915976,"29":-0.002816062018852499,"30":0.02188640877440169,"31":-0.06331035336685006,"32":-0.06790774506747962,"33":-0.0004297103625812708,"34":-0.04036131095370079,"35":-0.061042831487360644,"36":0.09036465813356834,"37":-0.01641161528411335,"38":0.023961530205746567,"39":-0.03467657676074329,"40":0.035629161460421624,"41":0.031323106151703535,"42":0.07521557799250819,"43":-0.0054332168285780675,"44":0.010329015475958646,"45":0.04180924558936206,"46":0.0477833190189923,"47":0.08429551992222352,"48":0.01126906526985712,"49":0.10993907284463947,"50":0.025145508619372623,"51":-0.004008647932005862,"52":-0.037610640391855646,"53":-0.08662349262237327,"54":0.06572331172437508,"55":-0.06197130932914885,"56":0.029873062483098185,"57":0.04233199627517291,"58":0.07489355236139345,"59":0.021086757033874422,"60":-0.011779044164083019,"61":-0.02242316786842558,"62":-0.06649077363199837,"63":0.07117393905583391,"64":0.10708889395517461,"65":0.014786812231359239,"66":-0.06101535424682208,"67":-0.09099972291069841,"68":-0.042207877282355144,"69":0.017392871678862814,"70":0.006055180705981257,"71":-0.054667160796656795,"72":0.039263335631294694,"73":0.05218910524793306,"74":0.004830677861661228,"75":0.06867958463896637,"76":0.028758229962144916,"77":0.009047922442144337,"78":0.007667895502606754,"79":-0.03135417763160236,"80":-0.04201394860785358,"81":0.019569046650711682,"82":-0.009086998007864581,"83":-0.006967738887620724,"84":0.06549911004266673,"85":0.04713974561034842,"86":0.02953154591358197,"87":-0.06245799233152871,"88":-0.0752392554077134,"89":0.004417119745536152,"90":-0.03703910003297658,"91":0.07586543766632128,"92":0.05607582060973857,"93":0.028012715011770453,"94":-0.03027172255838348,"95":0.04191928785801864,"96":0.008303875717006822,"97":-0.06532286489879834,"98":0.04223781083807264,"99":-0.012502593734943206,"100":-0.008000610596933501,"101":0.08038473548710293,"102":0.003658770912709278,"103":-0.099870876813366,"104":0.01569407753135021,"105":-0.01831903431323251,"106":-0.04585621407404886,"107":0.02794030644120245,"108":-0.03824376236525917,"109":0.033151162585326355,"110":-0.07434633122716551,"111":-0.027925878193062817,"112":0.038129300593747896,"113":-0.009289833395760571,"114":0.0898008846335981,"115":0.03125678596889387,"116":0.05186587418863103,"117":0.05208642619954937,"118":0.10447279595056445,"119":-0.03057529514969933,"120":0.0469445628561134,"121":-0.01758207997841421,"122":-0.05462760147901272,"123":0.020909789337523632,"124":-0.0380421601981752,"125":0.03001629106552435,"126":0.02670160785157906,"127":0.021007492607081724,"128":0.02537165251067535,"129":-0.01749689862704312,"130":0.05871853722269271,"131":0.013719726663317212,"132":-0.04916057497252089,"133":0.1171241547573139,"134":-0.03507873258972917,"135":0.008882954056898417,"136":-0.0653699981270829,"137":-0.03709399557987807,"138":-0.0856066071648565,"139":0.07859593794901387,"140":0.0307313341673317,"141":-0.06409719142969333,"142":0.028607622563480678,"143":0.06381546218134079,"144":-0.028438806469426325,"145":0.052898167508648175,"146":0.0434717795434063,"147":-0.09397399186109698,"148":-0.004548821434796288,"149":0.018818392636021974,"150":0.03793221010699215,"151":-0.038237872691070186,"152":0.023890981934535913,"153":-0.031500239284407164,"154":0.04514296644784502,"155":0.024362025361559445,"156":-0.022762977767127095,"157":-0.04322002035364019,"158":0.042070639239598785,"159":-0.04900117556909495,"160":-0.07868855772585671,"161":0.023425401064656758,"162":0.011629403904365614,"163":0.05633139476122362,"164":0.028648196907491392,"165":-0.01764977610176972,"166":-0.030020528926006963,"167":0.07693703827388784,"168":-0.04931728183654523,"169":0.03875612182191907,"170":-0.03313746931339689,"171":0.011970269101303044,"172":-0.0061043243624863824,"173":0.01463653415538351,"174":0.041190254464739104,"175":-0.07509443006316933,"176":0.04109793679242613,"177":-0.06590361089675464,"178":0.05354925000375903,"179":0.028669436759054936,"180":-0.002534450329099809,"181":-0.01661568955426372,"182":-0.010725523243408535,"183":0.050346386858977174,"184":-0.05551699728411454,"185":0.04097205945091765,"186":-0.05377841913035326,"187":-0.010983633591042943,"188":-0.046791058422628165,"189":0.030515016976517758,"190":0.03338140521486103,"191":-0.045918871032157055,"192":0.08707954223831824,"193":-0.10402221650477193,"194":-0.05414351649806324,"195":-0.02083890324546356,"196":0.025082642164548946,"197":0.08951282976801676,"198":0.051536315967661034,"199":0.016335606446102022,"200":0.010453485729187483,"201":0.08951203792372606,"202":-0.017750839504111278,"203":-0.04640130867105268,"204":-0.03789974120326801,"205":-0.006209655652552943,"206":0.039871455739739395,"207":-0.032333130774910124,"208":0.10456004151429082,"209":-0.0031307877253634515,"210":-0.04661989128131724,"211":-0.04672204670196716,"212":-0.083900262907825,"213":-0.007398951305020873,"214":-0.019296655146465187,"215":0.03141893796125181,"216":-0.07360483106038195,"217":0.021813276686721297,"218":-0.046549824072177295,"219":-0.04782300236521219,"220":-0.11340247104427766,"221":-0.09552484817878137,"222":0.048781557867373884,"223":-0.08687516313415394,"224":0.008103579517242606,"225":0.08634350553751842,"226":-0.044050932700020445,"227":-0.0007496043681721724,"228":-0.030630915635059895,"229":-0.030815509427721426,"230":-0.11986964537263085,"231":-0.056936364844837835,"232":0.0012966319239193472,"233":-0.07803745101053228,"234":0.027411886973311272,"235":0.014135661230731268,"236":-0.035514868382611274,"237":-0.030391077322441576,"238":0.004248298791129003,"239":-0.11987153718626814,"240":-0.1031211742029048,"241":-0.001548635034691262,"242":-0.011110558571162967,"243":-0.06977929175209228,"244":0.013647453128031142,"245":-0.028854602825953292,"246":-0.012678456254893247,"247":0.08212163547485082,"248":-0.1392985334761054,"249":-0.024858394355675776,"250":-0.022977800817394416,"251":-0.04127945592078423,"252":-0.016034457757918574,"253":0.03489168602798423,"254":0.0025860948699749104,"255":-0.027876081566157333,"256":-0.16498459442667227,"257":-0.09114187821397787,"258":0.005397352070852614,"259":0.03540355284448764,"260":0.12110773297542941,"261":0.09022969649645614,"262":0.08272415653004148,"263":-0.07927032817196908,"264":-0.12437012918205965,"265":-0.08212791587934423,"266":-0.19330224305036828,"267":-0.06342438959241974,"268":0.0031146605943585697,"269":0.001981652498319272,"270":0.0026922658981960884,"271":0.02733310639034855,"272":0.01755053596086174,"273":-0.19583292525748097,"274":-0.15728579109947008,"275":-0.1435411271724115,"276":-0.128270048886121,"277":-0.030367108365887446,"278":-0.017078700882535814,"279":-0.04556054992974262,"280":0.05605082005782418,"281":-0.07729132966551973,"282":-0.09253365371841768,"283":-0.14338235856523585,"284":-0.05172187376438116,"285":0.015504428714966574,"286":-0.06378222731245606,"287":-0.011269897526438161,"288":-0.04072504071674757,"289":-0.012564928524151026,"290":0.009811483986990426,"291":-0.22844411289475214,"292":0.11400842126480798,"293":-0.194979894439652,"294":0.008296334462539353,"295":0.03537782511559459,"296":0.08562337208848961,"297":0.06894663489960291,"298":0.04511439472824385,"299":-0.017732013518735254,"300":-0.06061638526432308,"301":0.1264379326879444,"302":-0.1253841714959137,"303":-0.017732111499353255,"304":-0.03432846059832091,"305":-0.10308981918449799,"306":0.033017018020718616,"307":0.06949939364944317,"308":0.02258403241864476,"309":-0.10453303821138336,"310":0.14104446172735438,"311":-0.09763991418652455,"312":0.07950684238421228,"313":0.05966243182745372,"314":-0.09632732944941098,"315":-0.01884371901279871,"316":0.05857805749593397,"317":-0.016241896267888644,"318":-0.13705017936026082,"319":-0.04932138635045297,"320":-0.06447726334272565,"321":0.016701130459667656,"322":0.11840487260842317,"323":-0.033833138330426483,"324":-0.004233731703159515,"325":-0.010733487108429219,"326":0.03545512547338976,"327":-0.14685488025842577,"328":0.03422680781498191,"329":-0.033322490027808946,"330":-0.02136380784867901,"331":0.061601911593219164,"332":0.06212968389798301,"333":-0.007457502439303536,"334":0.03509161994392453,"335":0.037070179400873475,"336":-0.061044096867862524,"337":0.005073857917338225,"338":-0.1356574238810243,"339":0.0005825661107209205,"340":0.008031236716670345,"341":-0.03305391003857999,"342":-0.027358899497735404,"343":0.1346938070177476,"344":0.08006368499375116,"345":-0.02584161643505151,"346":-0.010567551664679356,"347":-0.09833218687562491,"348":0.06641184858668756,"349":-0.04336576467409444,"350":0.018662101098618704,"351":-0.027676202264580035,"352":0.03366168597617682,"353":0.09621792584733124,"354":-0.09382284806813217,"355":0.1291271448464515,"356":-0.08251312721344403,"357":-0.04132904201670459,"358":0.028490136495761743,"359":-0.013334159908336314,"360":-0.03652952565544893,"361":0.03904726816721626,"362":0.04598110621323838,"363":0.048526050896904434,"364":0.14948698704452046,"365":0.025633896635137064,"366":0.03959020380759867,"367":0.0067692817886368965,"368":0.07632551137538834,"369":-0.001381745911427672,"370":0.09264662264401798,"371":0.0010503782454177504,"372":-0.1338590660354656,"373":0.16445729899383027,"374":0.010939230452602774,"375":0.06627214479861271,"376":0.11388350408658057,"377":-0.04097701478848567,"378":0.015214455139188333,"379":-0.05244461874436343,"380":-0.05752206511575448,"381":0.08512120362623972,"382":0.04297560772670609,"383":-0.05421746453055137,"384":-0.02250479490205342,"385":0.026911774291434022,"386":-0.06770553156691525,"387":0.03056932957791638,"388":0.05188254715636703,"389":-0.0017498671536277618,"390":0.08348645043221103,"391":-0.026262386107303776,"392":-0.05013359672958261,"393":0.024324415537361074,"394":-0.021084427160730126,"395":-0.051225189514121104,"396":0.008645899349814532,"397":0.026174169267359833,"398":0.026463897065565286,"399":0.001406939437169604,"400":0.05165298316697948,"401":-0.06998610166402869,"402":-0.08467077850272735,"403":0.04239530004118767,"404":-0.016912995703813955}},{"sx":1,"sy":1,"depth":405,"w":{"0":0.018350414459461797,"1":-0.0360258427698076,"2":-0.014227941398524393,"3":0.02033116217027977,"4":0.01901388919311178,"5":0.0030500289396087764,"6":0.011882108422304371,"7":-0.0006776204991433638,"8":0.018282342515652538,"9":-0.07087116934012619,"10":0.01646276369179384,"11":0.034888429104419916,"12":0.011962663911585476,"13":0.07802025538026307,"14":0.012022275082431996,"15":0.10350125713980413,"16":0.03541576020363784,"17":-0.05019751929385731,"18":-0.08295830953187286,"19":0.022664764046976853,"20":0.025756310507184993,"21":0.026210476019165777,"22":0.07321835047171765,"23":0.0027511617861782018,"24":0.01430908374459266,"25":-0.024625914233551767,"26":-0.015872042974725817,"27":-0.03873191027701399,"28":-0.009021407741311193,"29":-0.0032880589007312742,"30":-0.04055453711363087,"31":-0.01523263885224267,"32":0.053397553314791533,"33":0.012148055816536916,"34":0.050307868201423106,"35":0.030749880545900696,"36":-0.06285446691110926,"37":0.047227474591852135,"38":-0.056758506630190136,"39":-0.0060909693082905865,"40":-0.016057670501607568,"41":0.02851082091170203,"42":0.021544352936949982,"43":-0.040542455961267154,"44":-0.03855271330859011,"45":0.03839026080772386,"46":-0.04066927616077793,"47":-0.01298920518260501,"48":0.0013920447149874848,"49":0.021794718648369703,"50":0.016044671760898608,"51":0.06271565114833941,"52":0.00007677964803973783,"53":-0.0270731618339534,"54":0.05626558501415257,"55":-0.017080262148096326,"56":0.03225047407534737,"57":0.07271828059798012,"58":0.020718303351181577,"59":0.03911279529787142,"60":0.06756091571683595,"61":0.01886676462306747,"62":0.037136697435106066,"63":-0.04464811209331499,"64":-0.0028249861132034534,"65":-0.041643220143628666,"66":-0.1264870384744467,"67":0.014937597634104242,"68":0.025197596783516588,"69":0.022924489301377644,"70":0.017615919986279004,"71":-0.03336781079080137,"72":-0.057236271867364824,"73":-0.019095053023074512,"74":-0.048835465957108616,"75":0.04294964862065224,"76":-0.055471076268082294,"77":-0.07342824770149932,"78":0.007837408433252147,"79":0.07752176032612149,"80":0.03665974341294779,"81":-0.04629578481580604,"82":-0.04418455952865928,"83":-0.04680511641886856,"84":0.09993950006437895,"85":0.009557454260370806,"86":0.010864224642914352,"87":0.004719955765284662,"88":0.05403477868918734,"89":0.010587412760774875,"90":0.0011999397522600395,"91":-0.03370207732538111,"92":-0.010762729660146207,"93":-0.02934362155718986,"94":0.06405852678998565,"95":0.036296271128300465,"96":0.07492114118708247,"97":0.1063999326410461,"98":0.029199366416268968,"99":0.07348609120783563,"100":-0.013658908364691566,"101":0.022675498586318264,"102":0.0229563189672237,"103":0.09794207144250369,"104":0.10654303089537101,"105":-0.008431426823669447,"106":0.07553297360340815,"107":0.09814903443032086,"108":0.03956945239243108,"109":0.03623321321316915,"110":-0.040605242326534695,"111":0.008995519219391795,"112":0.12757798533136025,"113":0.062220407234593045,"114":-0.017639608903461734,"115":0.03865966392960006,"116":0.020242687048861015,"117":0.03860994115886029,"118":-0.049785616226247206,"119":0.0008543743546834785,"120":-0.015274901349571879,"121":-0.007501320924388834,"122":0.12848851045023255,"123":-0.08453427372024434,"124":0.049005680001288396,"125":0.03903047970687594,"126":-0.060193735730273805,"127":-0.005327538096566539,"128":-0.013205283196834176,"129":0.03278654944159534,"130":-0.007639525830875238,"131":0.03240074316469353,"132":0.036740977811396514,"133":-0.02073522697928209,"134":0.028360834218105,"135":0.06036270454344293,"136":-0.030471990189427152,"137":-0.01865080337761363,"138":-0.09253853706828791,"139":-0.0027586716350167565,"140":0.021048817837634803,"141":-0.035944291986556846,"142":-0.049664476049988825,"143":-0.05806417381895641,"144":-0.05635328848188463,"145":0.025407332879355198,"146":-0.017247979774450313,"147":-0.05326459204214785,"148":0.028048537237634653,"149":0.1019364784943787,"150":0.08499408306776332,"151":0.07297779247448972,"152":-0.034972611313766194,"153":0.024759889458985686,"154":-0.034458293561886025,"155":0.054750680109342274,"156":-0.09224071021721594,"157":0.030416020517519456,"158":-0.002347634750680449,"159":0.05713254826210121,"160":0.025573037636088557,"161":-0.00571500083269111,"162":-0.08929016111366808,"163":-0.04914477272744628,"164":-0.14433465541802804,"165":-0.026370305248293282,"166":0.030576748148585443,"167":0.011152930194545397,"168":0.04680937113379726,"169":0.09664199243535129,"170":0.10511350955721872,"171":0.030160582256362832,"172":0.10336133672265366,"173":-0.07049882982287597,"174":-0.019409207669606108,"175":-0.029058157614241343,"176":0.0742506572357747,"177":0.020371413129145678,"178":-0.08034716271746763,"179":-0.04789632808714988,"180":-0.02267876149854141,"181":0.005884116298015965,"182":0.005909742283121764,"183":0.029714359574662966,"184":-0.040090064313820985,"185":0.10383112446702752,"186":0.013254325844692546,"187":0.0043699112089469975,"188":0.007318127264130488,"189":-0.010890862978959193,"190":-0.025025795978091136,"191":0.06383399182163539,"192":-0.07107161375480764,"193":-0.06273104159806091,"194":0.009235146597421489,"195":0.04175405489884927,"196":0.08290495671054701,"197":0.15025541653229096,"198":-0.006858745835427862,"199":-0.07460743343282135,"200":-0.04429675204116893,"201":-0.07841723831061814,"202":-0.06371725132122852,"203":0.022225943852514918,"204":0.011149381394685406,"205":-0.018819139764555206,"206":0.02159776433171444,"207":-0.0006631184719793422,"208":0.050926480143767466,"209":-0.011685546326685734,"210":-0.02395054323242326,"211":-0.039093206201193054,"212":0.01903911836083679,"213":0.08608641916181294,"214":-0.04848583793608986,"215":0.08753926482518783,"216":-0.0026550036747895974,"217":0.10383561424869962,"218":0.012209288542013235,"219":0.045388396503808354,"220":-0.025381744286697885,"221":0.10739185695457627,"222":0.021494317436320895,"223":0.027058897859018962,"224":0.010211925252771589,"225":0.008531333549424105,"226":-0.04649681770266123,"227":0.032695746827662124,"228":-0.03925845340996656,"229":0.010537837424185207,"230":0.06089325914844945,"231":-0.046787054593454766,"232":-0.029848876251375812,"233":0.0826375786202565,"234":-0.035292225073123,"235":0.00874607965481372,"236":-0.08293473615619945,"237":0.045297741731640036,"238":-0.016719140074814075,"239":0.11157397932810403,"240":0.007539522171595947,"241":0.030939844759020025,"242":-0.04327770802989956,"243":-0.03373045654586001,"244":0.051402687915378505,"245":-0.05405606500289431,"246":-0.06091501421130141,"247":-0.11723205350526678,"248":0.052391122842136206,"249":0.06063419723901461,"250":0.030198604135255415,"251":-0.022673640614974136,"252":-0.12339404310929,"253":-0.021119393499624984,"254":0.008060846080172202,"255":-0.11427828647899756,"256":0.049069416369900906,"257":0.21502087454401222,"258":0.03854191857878138,"259":0.0407741601390208,"260":-0.07395544775980031,"261":0.0337037305703427,"262":0.014007477437790265,"263":-0.09802221769163415,"264":-0.06207730992211584,"265":-0.05216600602066208,"266":0.08113547088858344,"267":-0.0022971300916078447,"268":-0.004896633401793456,"269":0.08059773251480648,"270":-0.021484907927484483,"271":0.08285392532270863,"272":-0.006071659675858343,"273":-0.09585154716665951,"274":-0.005923784464411078,"275":0.024409881859191563,"276":-0.06700619803371462,"277":0.009707367030313734,"278":0.06767582884181904,"279":0.04421567441283395,"280":-0.0183377714730835,"281":-0.06353063338352458,"282":-0.06967802240030038,"283":-0.08252847885559604,"284":0.09545701183826556,"285":0.04488622955254897,"286":-0.017395203608470213,"287":0.02554037308649377,"288":-0.08576348422609013,"289":0.01813357276671322,"290":-0.041124531977777705,"291":-0.10449380524437889,"292":-0.07468759228926142,"293":0.15079364521188693,"294":0.051055312774736655,"295":0.010136449121613458,"296":0.01356555796465395,"297":-0.04674163784011967,"298":0.002099601214771529,"299":-0.02736529832713488,"300":-0.05087954984116963,"301":0.0037469070459229398,"302":0.09124033899735776,"303":0.027613841192734717,"304":-0.004651331916681832,"305":0.030582978883037154,"306":0.005357602317995627,"307":-0.01620763480700673,"308":0.06730330428331009,"309":-0.061016493172556766,"310":-0.0859859040315688,"311":0.1946572706534569,"312":0.09727235834291577,"313":0.10634188738756375,"314":0.04598633108361171,"315":0.05533414433388118,"316":-0.12648940900778763,"317":0.036888377175710696,"318":-0.07273029005779227,"319":0.012358045540029356,"320":0.05020817305642642,"321":0.005299228351457043,"322":0.013588599387308112,"323":0.08679631677340507,"324":0.029343819385510134,"325":-0.033583121456413914,"326":-0.031790054682894316,"327":0.006794492516052375,"328":0.01363476858097969,"329":0.09478870115018331,"330":-0.026368055465565216,"331":-0.0012146000191451645,"332":0.03292009089334897,"333":-0.07916713812448267,"334":0.05466997041114029,"335":0.036783655657963855,"336":0.03609860529123347,"337":-0.10256586131469922,"338":0.043464823402399086,"339":-0.010675795332237222,"340":-0.010723904923943229,"341":-0.034659142247853825,"342":-0.02685344352067074,"343":0.01350916802896421,"344":-0.06552802133785264,"345":-0.027912611160401297,"346":-0.1053113101238266,"347":0.13661237331285084,"348":-0.02611164779290661,"349":0.05962121319414425,"350":-0.013770411197821892,"351":-0.06812087216743341,"352":-0.05652793515228103,"353":-0.03914888352756019,"354":0.0036419075993449302,"355":-0.13429760287357603,"356":0.05899158038531143,"357":-0.04637143053358507,"358":-0.025072243372618364,"359":-0.01130652912556512,"360":-0.06075271206258885,"361":0.0012833618300701537,"362":-0.02812691626005842,"363":0.03929914090576502,"364":-0.06186865143280913,"365":-0.05190393159314447,"366":0.04812344484897586,"367":0.0038771447510054413,"368":0.07814696528381583,"369":-0.012042062359479825,"370":0.0022089401871109512,"371":-0.03814993732833969,"372":0.01998010859362715,"373":-0.07420922821038753,"374":-0.003941016632001646,"375":0.055655012375154224,"376":0.13605792062151476,"377":0.03341074695169617,"378":-0.002845578190892954,"379":0.009000920860142389,"380":0.03088036302594101,"381":0.02108107777571668,"382":-0.07233853727026365,"383":0.03296947404305225,"384":0.025281740978041266,"385":0.006742382933181737,"386":-0.0008681405900924388,"387":0.03857381430453526,"388":-0.06267323118223547,"389":-0.0033186649831107415,"390":-0.007222174269053536,"391":-0.00586966711419533,"392":0.013974471562931487,"393":0.003306754319864354,"394":-0.034071205647232296,"395":0.05036816656028517,"396":-0.002534874459997487,"397":0.008822122105054512,"398":-0.15568311014156622,"399":0.034886924286638976,"400":-0.08478201126188468,"401":0.09054639784574542,"402":0.02113459223646922,"403":-0.04113014916950024,"404":0.08791058183907788}},{"sx":1,"sy":1,"depth":405,"w":{"0":-0.005833090849859792,"1":-0.017269286935579463,"2":-0.012310199332915375,"3":0.015554260357795242,"4":0.03939865097255115,"5":0.07720183849134891,"6":0.09897833032621553,"7":0.07271151500433595,"8":0.012460229366117856,"9":-0.014456221824702341,"10":0.04565669674150863,"11":0.04261275334209315,"12":0.043509948223836456,"13":-0.005916807119352027,"14":0.007285998035983065,"15":0.01846468776207542,"16":-0.012356282044232498,"17":0.008633772716965324,"18":-0.0009170304345965326,"19":-0.030701113816639064,"20":-0.09473242212163525,"21":0.002468530778867179,"22":-0.055293040185540696,"23":0.0006848821703239052,"24":0.0023080276095737567,"25":-0.0547687672727362,"26":0.04352729463599851,"27":0.03090419104388524,"28":-0.03756182650066112,"29":0.01508431566734923,"30":0.09112646715207921,"31":-0.031345572300615146,"32":0.05102995282967029,"33":0.005236654062644957,"34":0.08513643545285401,"35":0.043517728677961984,"36":0.005988584861515513,"37":0.04213169441393725,"38":0.010202403903397468,"39":0.058673203836075855,"40":0.042140103995197326,"41":0.07296851701202137,"42":0.04298911416137902,"43":0.08606003585947054,"44":-0.02378083734498033,"45":-0.0019951489480461403,"46":-0.013454034376864982,"47":-0.05843000154418436,"48":0.03384059349456875,"49":0.036352039594367586,"50":-0.04749357485707276,"51":-0.023161367098238635,"52":0.003975941564346308,"53":0.04722762586901756,"54":-0.031081371193025842,"55":-0.013786966527990996,"56":-0.04132321329128292,"57":-0.011045098942735093,"58":-0.012917111438336307,"59":0.024619997765140893,"60":-0.14900372384209626,"61":-0.06455180587330167,"62":-0.05253519224917036,"63":0.10356429577738596,"64":-0.013469293051561746,"65":-0.05527893736102162,"66":0.12938743088132507,"67":0.0045916174188730145,"68":-0.013207388499627467,"69":-0.01849165089735831,"70":0.09264974416699195,"71":0.055856390863234816,"72":0.04645051557704407,"73":-0.012487460528549727,"74":-0.004656408563721302,"75":-0.07621411835250204,"76":-0.026614352623620295,"77":0.0015049910879498859,"78":-0.02834759955105918,"79":0.06217886479576888,"80":-0.12071183190015924,"81":0.0367139503091492,"82":-0.020165043094163282,"83":0.03336658226447416,"84":0.025007509493248616,"85":0.06575547163262786,"86":0.037015260524186876,"87":-0.01077174706136365,"88":-0.08059937402484056,"89":0.16647870194172482,"90":0.010985471367445276,"91":-0.014423850444684968,"92":-0.011314280985400191,"93":-0.029479489282250314,"94":0.07427989754200374,"95":0.027098157736418334,"96":0.051047603055993825,"97":-0.026537949937750202,"98":-0.08871389286872595,"99":-0.06580891136280562,"100":0.09680277793102776,"101":0.03451128363933068,"102":0.10477486676031138,"103":-0.08642398239880697,"104":-0.006260434823953028,"105":-0.0025736084017745743,"106":0.014770032692026371,"107":-0.019530577104946663,"108":-0.06395252895593137,"109":-0.024747754858858433,"110":0.05485425422823096,"111":-0.043812801160742584,"112":0.07764029455421631,"113":0.0033043700308500847,"114":0.00003430001706719485,"115":0.026357762604478356,"116":-0.005947146118859393,"117":0.10247002644468714,"118":0.02995276117322701,"119":-0.03463625436397968,"120":0.012515015630004544,"121":-0.022691962899905542,"122":0.09870595269757802,"123":-0.01568140716456777,"124":-0.017687084978076546,"125":0.031815750080105516,"126":0.11497435193814178,"127":-0.06443974308338565,"128":0.12084559626358037,"129":-0.10233935540174002,"130":0.04698851996801013,"131":0.10125259725783319,"132":0.028814987444065535,"133":-0.0020937990531021055,"134":0.010034304985264211,"135":-0.0358860730086973,"136":0.013160066658696434,"137":-0.012795669068236684,"138":0.008877761535935945,"139":0.010857440238451796,"140":0.0788897218261543,"141":0.06673472094068086,"142":0.01630953279321867,"143":0.013080937361942883,"144":0.009924098242186262,"145":-0.024090116601238006,"146":0.085251245308148,"147":-0.03756922448414226,"148":0.07596374034417579,"149":-0.09795644447019784,"150":0.04462338003645237,"151":-0.0666536061260369,"152":-0.008225500414300207,"153":0.08006908126551006,"154":0.026181589336603476,"155":-0.03890647548353014,"156":0.0505157245001385,"157":0.0011561742509782144,"158":0.045084280661712654,"159":0.028712125304310946,"160":0.12070616893182577,"161":0.006514736469791456,"162":-0.02107284640806943,"163":0.015202554616550835,"164":0.032332040007476984,"165":-0.09657963498217297,"166":0.022149995691860297,"167":-0.023983006678332426,"168":-0.0951511601856096,"169":0.06672519124073213,"170":-0.05223181372086421,"171":-0.03512224008275259,"172":-0.02640348245469763,"173":0.04846723510221561,"174":0.08612892337400324,"175":-0.010359159329955753,"176":-0.06660840851914307,"177":-0.10553365472168671,"178":0.021654593806599422,"179":-0.019185411153927728,"180":-0.044983266581827164,"181":0.018862424928641777,"182":0.03940831175597828,"183":0.007681883708303954,"184":-0.04035134548842774,"185":0.0000225220227950254,"186":-0.011166313702421273,"187":-0.045314455383961214,"188":-0.07960003214328454,"189":-0.05792096156494669,"190":-0.06089252121200909,"191":-0.04516248444381222,"192":0.059696057259527376,"193":-0.147123821894,"194":-0.04127386028380758,"195":-0.05633621246351247,"196":-0.06288058824609202,"197":-0.10762731556460284,"198":0.017476857570779526,"199":0.0037122726767504816,"200":0.09219877798164614,"201":0.06925161817348087,"202":-0.046475624772833055,"203":0.04130607210567611,"204":-0.10706371572073141,"205":-0.05152890368699562,"206":0.004584584026931622,"207":0.015202328632335227,"208":-0.076348216010234,"209":-0.02976641357433264,"210":0.018263118052332317,"211":-0.02070904166870428,"212":0.013315460269357243,"213":-0.00534476147860581,"214":0.03127797291688821,"215":0.013687572668184116,"216":0.03734809031749177,"217":-0.008970029864129763,"218":-0.11428402820990524,"219":-0.04881979439411178,"220":-0.018731916790369882,"221":0.05825112607085991,"222":-0.033227169369910096,"223":0.03856859069957744,"224":-0.06833215735147032,"225":-0.08600108725107924,"226":0.025195282916000455,"227":-0.03895336813792979,"228":-0.043912157488599536,"229":-0.006416144791767764,"230":0.01883579011041091,"231":-0.012601505316966641,"232":0.0033243048470259595,"233":0.03553759587288868,"234":0.0678354920424294,"235":0.06026517564926305,"236":-0.02993303595344296,"237":-0.05014560291355742,"238":0.0839394930300008,"239":0.027515410101044847,"240":0.07887815229550126,"241":0.08469937505418575,"242":0.06752369963327062,"243":0.06166499994642289,"244":0.030472686213348164,"245":0.029418981593675397,"246":0.002066905522423171,"247":-0.035312439609447875,"248":-0.03662828945690909,"249":0.02358092356981166,"250":0.05048193685166196,"251":0.006250897469585168,"252":0.06708818118281726,"253":0.0027858551665357893,"254":0.04637517943140262,"255":0.1401944458371889,"256":-0.04091306579331792,"257":-0.025819690005346858,"258":0.043235976462705376,"259":0.005916097500059656,"260":0.017870826362650173,"261":-0.05599154346409165,"262":0.0076091872597871466,"263":-0.030712885589864146,"264":-0.024331925621893583,"265":0.02908900963112049,"266":-0.041679879820246554,"267":-0.12670342052829295,"268":-0.0673434968399304,"269":0.052539388636683684,"270":-0.04910379514952684,"271":-0.021036359530307705,"272":0.08974032064112113,"273":0.0015816333582725844,"274":-0.055312611544408856,"275":-0.06695704136578474,"276":-0.08196836263795951,"277":0.02944182383030798,"278":0.030174734418185814,"279":0.03246833886000717,"280":0.09178927530493819,"281":0.08557572499252132,"282":-0.005684817305445107,"283":0.008875736483028666,"284":-0.04961564221871077,"285":-0.017774391499238294,"286":-0.11672046068342666,"287":0.005152682944026562,"288":0.01700134973804001,"289":0.03378643453335578,"290":-0.00846354597097817,"291":0.02435351907232045,"292":0.012124851727921465,"293":0.009886343531152158,"294":0.02753935806878868,"295":0.027621645046131425,"296":-0.03402942649845664,"297":0.052848424856441034,"298":0.02350736511037988,"299":0.0010720727307429619,"300":0.12048168289977855,"301":-0.011165332385687468,"302":-0.03323401134845206,"303":-0.022404361518658603,"304":0.035037244684528214,"305":0.07012498373429424,"306":-0.010153880396937823,"307":-0.047311617847981366,"308":0.14264126707358968,"309":0.1504857793893845,"310":0.0005585860643127766,"311":-0.09847378405495073,"312":-0.04783759003839146,"313":-0.09180719397520382,"314":-0.033579257628552336,"315":-0.021073237299975324,"316":0.035519478166109134,"317":0.02675125181786293,"318":0.13457884418025523,"319":-0.17164944597064405,"320":-0.14800075603030255,"321":-0.0015031052203082808,"322":0.11585441293153236,"323":0.053971427298652834,"324":0.005387192972983284,"325":-0.02604186432352886,"326":0.0371012062003606,"327":0.09054734243979808,"328":-0.07605569240170193,"329":-0.07916146511339342,"330":0.03270112643786785,"331":-0.007367529560451226,"332":0.025879818166200053,"333":0.07931568164173891,"334":0.02385448817250601,"335":0.11943919666285659,"336":0.206012439741818,"337":-0.13701954310548684,"338":-0.10661687056424189,"339":0.00782527866902688,"340":-0.0010375350223321498,"341":0.06746560347228533,"342":-0.025077326701986723,"343":0.04507283300811741,"344":0.04584731356592787,"345":0.1343853561124524,"346":-0.1849188424727247,"347":-0.01849589964054999,"348":0.06261140699200454,"349":-0.038096230164667906,"350":-0.0032918524975291165,"351":-0.05131411598660206,"352":0.0704520465095151,"353":-0.104572550388762,"354":0.20575570277950314,"355":-0.0030754617364554915,"356":-0.15738425399961944,"357":0.06022144041412238,"358":-0.07217090415631934,"359":0.05588458960509471,"360":0.10654953562736923,"361":0.07593971436897613,"362":-0.056901462883969085,"363":0.20002469127168293,"364":-0.10483919075695716,"365":-0.1068179058762124,"366":0.026701836763204,"367":-0.07282516263187477,"368":0.08780364228939566,"369":0.007253846895957304,"370":-0.0658186612215666,"371":-0.02506148724057526,"372":-0.008448753397509463,"373":0.013680401155043043,"374":0.0007560887449330181,"375":0.02087349260250135,"376":0.06391039079202758,"377":0.004145227182463748,"378":0.022878918693123754,"379":0.05276599670538954,"380":0.024590095517179545,"381":0.0469349189043726,"382":-0.03358965822548199,"383":-0.05122563508640756,"384":0.04427434262434464,"385":0.00844563494681987,"386":-0.0015898157825040002,"387":0.02981581092540463,"388":0.08372650249755227,"389":-0.009807938335319946,"390":-0.050728471980265755,"391":0.04346530885211936,"392":0.049010167943757926,"393":-0.017746810298636135,"394":-0.012678796684110986,"395":-0.03525025364637181,"396":0.029985354873616546,"397":0.04745175133667879,"398":-0.022595084874241108,"399":0.050505417981551816,"400":0.01766164205015331,"401":0.07579055515636483,"402":0.016486820207752294,"403":-0.028118028415693264,"404":-0.010183055463880437}},{"sx":1,"sy":1,"depth":405,"w":{"0":0.05012685332333785,"1":-0.013241600369784752,"2":0.07106366370594315,"3":0.007970612882418742,"4":0.07495063948137883,"5":0.06611003909016903,"6":0.028781996147079943,"7":-0.008691750243994602,"8":0.09730719079351492,"9":0.08480834379416868,"10":0.03711771834542327,"11":0.1270335295406533,"12":-0.03936155620513913,"13":-0.024246666037665655,"14":0.03475001040496446,"15":-0.026721622625292023,"16":0.02940149033406818,"17":0.06723165137390916,"18":-0.04453797099683258,"19":0.010401860469488947,"20":-0.0038677402968974824,"21":0.002501543018167029,"22":-0.009080195968082185,"23":-0.028585421192773977,"24":-0.056104816396953666,"25":0.03794172130995493,"26":0.06271038878052855,"27":0.006333213857847751,"28":-0.01580654128608355,"29":0.015336371450283963,"30":0.0625668220027906,"31":-0.09332868144312574,"32":-0.021858783208484656,"33":0.004278517896037693,"34":0.039989802105369045,"35":-0.008299780874400626,"36":0.04598369109392213,"37":0.04173727137576033,"38":0.006054757597514412,"39":0.012198346337798137,"40":-0.010867614680864415,"41":-0.0012119341183363735,"42":0.06582751397335912,"43":0.06435940300160584,"44":0.12756215260109555,"45":0.03812989523240243,"46":-0.053366576851618795,"47":-0.0004764569425810552,"48":0.09595962566864391,"49":-0.0725172213898577,"50":-0.022819184611597102,"51":0.05027780152480527,"52":0.05028912718671927,"53":0.03759294238355187,"54":-0.038077528803056176,"55":-0.029593304168600804,"56":0.01999355078027685,"57":0.02937544269921271,"58":-0.016586532622121175,"59":-0.0371400798602675,"60":0.023083818072377145,"61":0.03801513921697248,"62":-0.02139950675977236,"63":-0.025859017417651,"64":0.005014629858877527,"65":-0.11601219308172928,"66":-0.0003789496296706672,"67":0.019950089020983046,"68":-0.024854449933350176,"69":0.033028165086459456,"70":0.06692106542518374,"71":-0.013854170909496291,"72":0.050296480623376376,"73":0.012881446853959847,"74":-0.031164282985517024,"75":-0.03936609886694657,"76":-0.01480013811019758,"77":0.025725789977441633,"78":0.040099271029204055,"79":0.04272071270408578,"80":0.1044923590577705,"81":-0.0011389561589235048,"82":0.025600639704093302,"83":-0.08960729047101486,"84":-0.04104988239536265,"85":-0.04540753279222,"86":0.06649723489234773,"87":-0.014060104005374437,"88":0.0037855863074469347,"89":0.00307168529256498,"90":0.038656953166999374,"91":0.04443365168454727,"92":-0.025845322121531872,"93":0.038853163762776144,"94":-0.09382082958752742,"95":0.03614823406817049,"96":0.008113196821787393,"97":-0.06873824463349779,"98":-0.09390961139386408,"99":0.04596029429112189,"100":0.0338391845000497,"101":0.00666006482750498,"102":0.04391583595455259,"103":0.08414276945876215,"104":-0.010785762283922218,"105":0.10487803976405144,"106":-0.0404632318440017,"107":0.0518399363524423,"108":0.07144976991701676,"109":0.06007345293528795,"110":0.024867208826021555,"111":0.008152204596685057,"112":0.005467843507709601,"113":0.04361625686640839,"114":0.0651459675878982,"115":0.008536555546486404,"116":0.01107875146127172,"117":-0.035286820451493596,"118":0.06041341498768502,"119":-0.02039736854202098,"120":-0.05217662351653842,"121":-0.08375462391648919,"122":-0.021331259371236554,"123":0.029239018313942624,"124":-0.09072194457238529,"125":0.0266088987426459,"126":0.03375211021383877,"127":-0.07239770273596402,"128":-0.03358238529764464,"129":0.0025282616705920987,"130":0.12735638279310108,"131":-0.030964541560914043,"132":-0.08201583643143255,"133":-0.046293450784486295,"134":0.04021149160368964,"135":-0.011085052290359654,"136":0.027004486003435423,"137":0.017462645803354673,"138":-0.04652457446059352,"139":-0.03840815333197623,"140":-0.07831106268910375,"141":0.059930192399759837,"142":-0.018360650938019914,"143":-0.12588130711909118,"144":0.018947435157175837,"145":0.050867911968996156,"146":-0.03638873422205431,"147":0.002368717355944597,"148":0.12541506506520964,"149":0.0015992055818710613,"150":0.01943267719097993,"151":-0.010070335931241603,"152":0.06968676743418048,"153":-0.007563538458182844,"154":-0.02445040845134328,"155":-0.07518294142257051,"156":0.05761569110234341,"157":0.015006010837552522,"158":0.06185230481285283,"159":-0.0625999933777805,"160":0.005202906286364731,"161":0.025727004165616234,"162":0.039696998149060574,"163":0.0392193546798496,"164":-0.009407852993155118,"165":0.03630880449408129,"166":-0.030976273571777277,"167":0.03128668510416592,"168":0.10590393193920754,"169":-0.023924951358381002,"170":0.09476600164177779,"171":0.04641743491545655,"172":-0.12062138293947172,"173":-0.09475189634670389,"174":0.052963622959836476,"175":0.003253457849231076,"176":0.09308450641071954,"177":-0.021550615835950672,"178":-0.07320687695370363,"179":-0.0753450405995036,"180":0.10510040042554439,"181":-0.035694601071768285,"182":-0.04501857311515503,"183":-0.03052335499188699,"184":0.0029333526160485943,"185":0.05921832923460157,"186":-0.022497548305542424,"187":-0.07027022615093353,"188":-0.07466802116526551,"189":-0.03022450638099203,"190":0.004883173693697192,"191":0.08321234883006663,"192":0.06378749747049366,"193":-0.08155114843734189,"194":0.059052991795053626,"195":0.07832059113546402,"196":0.02583746353601714,"197":-0.07699928700906601,"198":0.0662010490829028,"199":-0.17834344674781485,"200":-0.04836390523437081,"201":-0.006368595153570583,"202":0.017688706387641952,"203":-0.024260942935894307,"204":-0.0008414263323872088,"205":-0.012198196103622303,"206":-0.05090666540632305,"207":0.0434620377389902,"208":0.07027402590738721,"209":-0.014302372435357133,"210":0.0009296797164369303,"211":-0.00999941877429831,"212":0.12387695255854021,"213":0.0011813572710904067,"214":-0.028562508676744213,"215":0.01863389293936864,"216":-0.06016051931513306,"217":0.0019863807437429785,"218":-0.06224035236663333,"219":-0.07102603640358128,"220":-0.033067608089862296,"221":0.08285095069775766,"222":0.01748276189438103,"223":0.04585764278554712,"224":-0.024563978494201336,"225":0.06616517511628604,"226":0.07402169366765336,"227":-0.029571325523217208,"228":0.02176769788939804,"229":-0.006438327617655807,"230":0.019415755960430246,"231":0.054056614128457324,"232":-0.04212201633796099,"233":-0.04890350164820397,"234":0.03589354066253342,"235":-0.017709726748642237,"236":-0.025872148447971862,"237":-0.08548102583208574,"238":0.0846859654673763,"239":-0.021448177559114028,"240":0.11630639653033165,"241":0.00410224826567918,"242":-0.10772755821179367,"243":-0.0009557361501032467,"244":-0.0451911783453455,"245":-0.07803898044739926,"246":0.015912658538556716,"247":0.060674330403266676,"248":0.016369870743649016,"249":0.011054690978636207,"250":-0.06491076271313524,"251":-0.006087317554771006,"252":-0.016685600246917724,"253":0.03779079210171575,"254":-0.0242947811186152,"255":-0.05421086527151673,"256":0.016666664832838723,"257":-0.09520703946945377,"258":-0.05759424097073857,"259":0.04015817231655375,"260":-0.022809957484894547,"261":0.018509324330919195,"262":-0.010588749235104444,"263":-0.10688055723675494,"264":0.02109098326872529,"265":0.002466142372239974,"266":-0.12427652173411322,"267":-0.097020004867027,"268":0.012834920212333335,"269":-0.03268243587638464,"270":-0.09028376284696188,"271":0.076125114603713,"272":-0.020853030539084747,"273":0.0005560765388975384,"274":0.052223757114910556,"275":-0.020175741826270476,"276":-0.0011230624979040823,"277":-0.037122127076486995,"278":0.07711772019744209,"279":0.008759450917237536,"280":-0.03354170092631438,"281":0.01076853711830563,"282":0.04692053977689945,"283":0.049205375599906356,"284":0.01922226074159128,"285":0.02994791242279618,"286":0.0025734373008123794,"287":-0.026741608429883795,"288":0.03198224530549115,"289":0.024971296585591805,"290":-0.06555554026783517,"291":0.006969882205201562,"292":0.06307418005740852,"293":-0.058145722444480345,"294":0.04664985938061754,"295":0.07760206461806232,"296":0.04890524458909735,"297":0.05042797300789194,"298":0.0641867131896902,"299":-0.005452708228446351,"300":0.0553682646868022,"301":0.13857776911181097,"302":-0.06618483391049707,"303":0.033727828770269114,"304":0.06484109782074983,"305":-0.0025406565683005395,"306":-0.030895111756527423,"307":0.059718776324305535,"308":0.09197099276947282,"309":0.029286291967141494,"310":0.13576291877150834,"311":-0.015741251306842348,"312":0.0031404999018720195,"313":0.0665424711798144,"314":0.011358763074306806,"315":0.0006771559866666022,"316":0.10856707112864958,"317":-0.050766835100022556,"318":-0.06383294796065132,"319":-0.03661269640419501,"320":-0.048755747402330615,"321":0.038371403010022245,"322":-0.0008634565503580538,"323":-0.054809711389278086,"324":-0.06186065900897231,"325":0.07258620040209465,"326":0.027641445141472886,"327":-0.02625023564906145,"328":-0.16113870883589515,"329":-0.02453609105912752,"330":-0.08535649888125843,"331":0.04018240839050421,"332":0.04922381931862415,"333":-0.004535281724610991,"334":-0.02614450226627724,"335":0.06644270012795453,"336":-0.08199329468726901,"337":-0.02560905626582594,"338":0.006930384660032526,"339":-0.06079552623826872,"340":0.03434093862486148,"341":-0.024777781794156857,"342":-0.0034665527913597814,"343":-0.01637578562134923,"344":0.04398316808034391,"345":-0.036079997456671134,"346":-0.0768661814294743,"347":-0.11591634102759348,"348":0.008623182862252369,"349":-0.06547365592776559,"350":-0.04831149043149499,"351":0.003753287678551992,"352":0.00516442818649607,"353":-0.043470995048747,"354":-0.027631292647840436,"355":0.011930931605210204,"356":-0.06603037541240377,"357":-0.0043076326929478905,"358":-0.03674339958012735,"359":0.075391385111433,"360":0.030581639542367683,"361":0.08543314506465122,"362":-0.011231587729370036,"363":-0.058856150943472366,"364":0.09465401689633761,"365":0.009860836367968206,"366":0.002823550258695505,"367":-0.07175743435311652,"368":0.02241904195619961,"369":0.047267374546974626,"370":-0.10151181218951195,"371":0.019905352561693374,"372":-0.08378664894781841,"373":0.014218351656674476,"374":0.013924562273019298,"375":0.03429040029443823,"376":-0.10209271831850085,"377":-0.058032207112735955,"378":0.024222770061652202,"379":0.00534998895930807,"380":0.001392015495328704,"381":0.06827292204734399,"382":-0.0011845793792024776,"383":-0.004704286636141426,"384":0.023759916014639233,"385":0.0637090585257171,"386":0.053097125065936335,"387":0.07755506337457449,"388":-0.008662897084536492,"389":-0.03101306118203576,"390":0.05585149571289194,"391":0.09745664630438101,"392":0.07517540556711928,"393":0.06489701549704516,"394":-0.052323454500433006,"395":0.051878339127109846,"396":-0.028315640924695868,"397":-0.09838360588371106,"398":0.06764805267336998,"399":-0.045758403465678936,"400":0.05368914620216768,"401":0.07604920024509819,"402":0.012918000079361837,"403":-0.08620885386318795,"404":-0.12239811748259641}},{"sx":1,"sy":1,"depth":405,"w":{"0":0.04038564151368892,"1":-0.05400736362516569,"2":-0.013322298233003462,"3":-0.030338479634406692,"4":-0.0945799846076461,"5":-0.11732480147214873,"6":0.031611782182016754,"7":-0.04132104761999921,"8":0.016389441674516145,"9":-0.012122306743071756,"10":0.023177451858202094,"11":-0.019259114445223026,"12":0.021127498822552628,"13":-0.04497114115620585,"14":-0.08400515340457744,"15":-0.045058944966802884,"16":-0.0018760611185998197,"17":0.06876821578114582,"18":-0.09470240861514442,"19":0.005996902375750469,"20":-0.09491142783174465,"21":-0.022749638468429725,"22":0.1194786486940291,"23":-0.05327678110088009,"24":-0.03375380642862889,"25":0.03568681117754532,"26":-0.05742667284507284,"27":0.05162957116385489,"28":-0.0033794224526497788,"29":0.032327599978699655,"30":-0.0578020356940175,"31":0.026740280854311807,"32":-0.03725304476074895,"33":0.03683100574751306,"34":-0.012001818082357743,"35":0.09068046029661699,"36":-0.08158613704685083,"37":0.009233334186794813,"38":0.0010130386192352598,"39":0.009029627349085719,"40":0.03788910866182993,"41":0.054768130738551794,"42":-0.014884071106683697,"43":0.015405696982397594,"44":0.009980393394900162,"45":0.10774638832927362,"46":0.0076118943312424555,"47":0.05336128036657801,"48":-0.009585743345794344,"49":0.039653985375074245,"50":0.012410306967829736,"51":-0.10950201777612965,"52":-0.03392015527270982,"53":0.004510846322594677,"54":0.028993216855956724,"55":-0.0728117630581846,"56":-0.01332010044672115,"57":0.036705536477864405,"58":-0.02174334623240056,"59":0.034189745620914674,"60":-0.028114576926311387,"61":-0.006821298590009231,"62":-0.09389084235596563,"63":-0.11260619733287486,"64":0.007352912368678804,"65":0.03002001318969541,"66":0.05779791806627172,"67":0.05014451008677864,"68":0.028677681542569937,"69":0.007746659518589921,"70":-0.0041511622055192135,"71":-0.06785940026221572,"72":0.017825704954690016,"73":-0.06512875140618818,"74":-0.013415008563953253,"75":0.0374387244721237,"76":0.11604608861823618,"77":-0.06097686455701417,"78":0.03610804783162039,"79":-0.04822523057137073,"80":-0.10679119181969828,"81":0.0346658877737004,"82":0.021432330117967146,"83":-0.0904763244759917,"84":-0.003275591667323261,"85":-0.03972960671032555,"86":0.06436263859625617,"87":-0.0433575156361084,"88":-0.03892680604522051,"89":-0.0009185829112669597,"90":-0.029355259956485295,"91":0.05975852538057803,"92":-0.010679872223193042,"93":0.05843595830579874,"94":0.041579307708597385,"95":-0.007997375220581637,"96":0.022762466519843764,"97":0.02507578492626774,"98":0.018143633093200055,"99":-0.003977141183437877,"100":0.043690151903363325,"101":-0.007203633691456335,"102":0.026405562948115014,"103":0.02358212481225779,"104":0.006257850975163945,"105":0.018969557845526598,"106":-0.03737204903275453,"107":-0.0842870834320235,"108":0.038173728138092715,"109":-0.018080696121261893,"110":0.029324009570211685,"111":0.026139474819755988,"112":-0.0553965683121722,"113":-0.042793865286164655,"114":-0.04107747160243814,"115":-0.03309077592888443,"116":-0.02873988119829856,"117":-0.004927219060702097,"118":-0.029364415869275427,"119":0.03453796305369108,"120":0.010996361413959061,"121":0.10117117855060462,"122":-0.05827084138257837,"123":-0.07986712800727548,"124":-0.07827396540933902,"125":-0.08278390062719675,"126":-0.005609473358064706,"127":-0.07102125430078474,"128":0.020021237896640835,"129":-0.05746496680365289,"130":0.16643450217381336,"131":0.049699463088048915,"132":-0.061518646831835895,"133":-0.011835909179708629,"134":-0.09526995632637612,"135":0.11321530021945833,"136":-0.010116338590216876,"137":0.04575117954250601,"138":0.047051202720268526,"139":0.054079989392885615,"140":-0.02861302043065183,"141":-0.01694216804209261,"142":0.0595822545125082,"143":0.002340124980472895,"144":-0.06034258479569904,"145":-0.023875300308992195,"146":-0.010230922906551101,"147":-0.026880227011008367,"148":0.05116645475646523,"149":-0.09967194170955945,"150":0.04085911930041594,"151":-0.012695045438485387,"152":-0.0017191442288919318,"153":0.04548658490049582,"154":0.048672272476961286,"155":0.02219404759777999,"156":0.06595642492468791,"157":0.022586303388558288,"158":-0.01227495762806025,"159":-0.03487317247462926,"160":-0.0032519905247350997,"161":-0.0464111233663442,"162":0.03038802179411927,"163":-0.0031361049689393374,"164":0.033102147142786066,"165":0.04895911895330317,"166":-0.004648987512007572,"167":-0.0008514823458902047,"168":0.021540247371898493,"169":0.042973360836865766,"170":-0.06995470044738145,"171":-0.0296655352866363,"172":0.030616347319241514,"173":-0.07133617684767612,"174":0.06538914864210418,"175":0.002792246143355551,"176":0.060708386953052064,"177":-0.012725009445659956,"178":-0.016753907021936017,"179":-0.04399098191103661,"180":-0.012942027283872544,"181":-0.07574679956337135,"182":-0.002439705399801553,"183":0.07126173673243089,"184":-0.008423025878614132,"185":-0.028773947796669797,"186":-0.05096677734362777,"187":0.0023835826362622516,"188":0.0062165021683687266,"189":0.06098881543825464,"190":0.02622846228744209,"191":0.04057105109922761,"192":-0.017458489214825432,"193":0.04043666935393583,"194":-0.060824659437233315,"195":-0.0015156843964478019,"196":-0.1284623959205115,"197":-0.029532073861366373,"198":0.02956792706466207,"199":0.00958751320917119,"200":0.06479576446629653,"201":0.06702626271140864,"202":0.0014901634823954162,"203":-0.05279275970886691,"204":-0.03732773296073911,"205":-0.06626266312001412,"206":0.08455327361911506,"207":-0.0490794091945038,"208":-0.05566070754024749,"209":-0.02493744110891308,"210":-0.04230982758006114,"211":0.1939638650097903,"212":0.0037186017667511766,"213":0.09098315211510141,"214":-0.027526863439329044,"215":0.05800049427395338,"216":0.020211937481109523,"217":-0.0410508605117117,"218":-0.017539737096799957,"219":0.00671315503553523,"220":0.11660373607095247,"221":-0.043357672578672596,"222":-0.006459179169397784,"223":0.08402712792555796,"224":-0.02177343988335964,"225":-0.047076409546799036,"226":0.021065252908042325,"227":0.032004494038227534,"228":0.14902242494333193,"229":0.17822147917528422,"230":0.02740869758086588,"231":0.010049230630836759,"232":-0.09521851903376946,"233":0.046717166268563724,"234":0.03238849690786785,"235":-0.06023659614018279,"236":0.023803827652160055,"237":0.04058715201300079,"238":0.19172328243494627,"239":-0.04731779281102995,"240":-0.01593517566075094,"241":0.04589387683850142,"242":0.003618827881496877,"243":0.009233469631316934,"244":-0.03921712364388639,"245":-0.09382632429794659,"246":0.05641145099923966,"247":0.1344538936580439,"248":-0.017808142333832322,"249":0.008554183616981391,"250":-0.030018993166842485,"251":-0.06685164151830819,"252":0.03853775542558848,"253":-0.016714515565730986,"254":0.026211761197266654,"255":0.026203755149405712,"256":0.2847866589196711,"257":-0.019009076109466404,"258":-0.050969960330704896,"259":-0.02553968400982352,"260":0.0007685194210142801,"261":0.036650593046830465,"262":-0.041798220051378406,"263":0.06638227993353654,"264":-0.008779061661164022,"265":0.270894987901741,"266":0.0022752947963973398,"267":-0.0034748227118241003,"268":-0.03475120676857538,"269":0.07116392402724363,"270":0.051962876046695514,"271":0.03848282337591973,"272":-0.06432264720732817,"273":-0.011534185914609368,"274":0.2687415916339307,"275":-0.023472310456097815,"276":-0.09879544926889858,"277":-0.04637956727618733,"278":-0.0572162342301761,"279":-0.034276663766327195,"280":0.030814709671747993,"281":-0.024318687193787318,"282":-0.09435541412018707,"283":0.1068239943574707,"284":-0.033484034590552055,"285":-0.08753557848575319,"286":0.06077455286504275,"287":0.07779233809444085,"288":-0.09863642691713564,"289":0.04281259398901547,"290":-0.07704179135776079,"291":0.07644150181715487,"292":-0.13296783031310339,"293":-0.08285083577591593,"294":-0.06149699370822017,"295":-0.07087334232923109,"296":0.09837087408208708,"297":-0.04213313297413351,"298":0.0030196293428788584,"299":-0.024249635820414825,"300":0.09838708527737867,"301":-0.1400541143272632,"302":-0.021284131482062225,"303":0.0668091797487784,"304":-0.022260030241349114,"305":0.04080358365673507,"306":0.024521977608773848,"307":-0.03890326361454091,"308":-0.005459054771497928,"309":-0.00042029260130841637,"310":-0.08125303516736013,"311":-0.0602069105336418,"312":-0.022006263059207564,"313":0.010935535459887662,"314":-0.08517328496069274,"315":0.08333540515142294,"316":0.03289068669862798,"317":-0.020695847956917215,"318":0.01288672834354406,"319":-0.03332525922406105,"320":-0.09806860311182888,"321":-0.030925320453763762,"322":-0.0789020205640372,"323":0.0533378505619,"324":-0.023873716385915816,"325":0.025053592292735478,"326":-0.03008066699349341,"327":-0.03458162883352128,"328":0.033631899386125694,"329":-0.05875638207841069,"330":0.01792581284201892,"331":0.002591373825809967,"332":-0.04516081976153432,"333":-0.02859799323452219,"334":-0.02124799799952161,"335":0.024718198641488123,"336":0.01738372209122271,"337":0.0519580710980982,"338":-0.014710646536622829,"339":-0.1004374045821036,"340":-0.03876204182341807,"341":0.014756251865108462,"342":-0.03211167553828893,"343":-0.004556184344881183,"344":-0.0073225371244283735,"345":0.08866173707859344,"346":0.11898752087370508,"347":-0.034925249314316724,"348":-0.0013802901396487075,"349":0.010980825106861746,"350":-0.007048640405381762,"351":0.057004002095726265,"352":-0.0020518613294707175,"353":-0.008544853559228172,"354":0.05905930202361156,"355":-0.09412075963089268,"356":-0.019936873792308372,"357":0.013705060350881091,"358":0.003989922694429463,"359":-0.012759210104274063,"360":-0.018686586259511584,"361":-0.01648971086267104,"362":-0.11054772535200477,"363":-0.03730387471960764,"364":-0.009735144699382919,"365":-0.0027526015466848306,"366":-0.010420697275924942,"367":-0.017994580410412634,"368":-0.04536142718666316,"369":0.056286215770074706,"370":0.027310746764211025,"371":0.08527871567459192,"372":-0.0625217707720891,"373":-0.017492471028857703,"374":0.009971341569215435,"375":0.044646222621901314,"376":-0.028981637333476976,"377":0.014911894388168782,"378":-0.009661431259799468,"379":-0.034121181577672965,"380":0.04537838721508675,"381":0.023651677260606255,"382":0.019419289674537207,"383":-0.030410596631895697,"384":-0.05512342206694142,"385":0.03167630947152725,"386":-0.01959070091154707,"387":0.02789855226435996,"388":0.010320627069288919,"389":-0.14913329191791624,"390":-0.03747511407638619,"391":0.1044635012249044,"392":-0.041583857121335,"393":0.0057388131316544275,"394":-0.002856837596694898,"395":-0.07527560015577889,"396":-0.019531840253900975,"397":-0.03858398501763029,"398":-0.04546580807521217,"399":-0.007040479993423685,"400":-0.00046513908262006974,"401":0.033394958365468366,"402":-0.03940173107477765,"403":0.02936604903878692,"404":0.1240072349749084}},{"sx":1,"sy":1,"depth":405,"w":{"0":0.0013551975585957177,"1":-0.06146489957087984,"2":0.07361641764643483,"3":0.05844430854213926,"4":-0.06829752867893008,"5":0.010559730324624041,"6":0.0020972951790812063,"7":-0.09034721915045554,"8":-0.0015036203643061532,"9":0.010581618673428654,"10":-0.028607905517908577,"11":-0.016989105276718975,"12":0.05563415693907422,"13":0.006352715941614828,"14":0.03909491026777001,"15":-0.08466027338607468,"16":-0.019257863597016686,"17":0.07324046621961612,"18":-0.05076151376156823,"19":0.04556570532266619,"20":0.03504091147371726,"21":0.05421656268656403,"22":0.03719029972955132,"23":-0.04813778144213183,"24":-0.040074270460757136,"25":-0.021617224651355106,"26":0.022803786107620246,"27":0.06398699217438383,"28":-0.06304158690143304,"29":0.03500706018835877,"30":0.04663938763874548,"31":-0.041133418707811925,"32":-0.059208861189696975,"33":-0.0713082146772877,"34":-0.05714945625313856,"35":-0.009968579496364325,"36":-0.022938784719710843,"37":0.05218201561599732,"38":0.03128581978745963,"39":-0.0341910355472241,"40":-0.06124599831614616,"41":-0.004342559045268634,"42":0.04566222518408164,"43":-0.1287616596378408,"44":-0.03310743268724295,"45":-0.08345589513289166,"46":0.040291870536029895,"47":0.04237030825219902,"48":0.014350920366898822,"49":0.011306863525295212,"50":0.0006991922207306912,"51":-0.004598481011106136,"52":0.03674060238412925,"53":-0.01988697009488917,"54":-0.05935680850845393,"55":0.02803010558046673,"56":-0.04052626330932131,"57":-0.0854924241871304,"58":0.06173097156112796,"59":-0.00492009535812945,"60":-0.022433859755053246,"61":-0.02729793711482938,"62":0.0020200247261536576,"63":0.0014755483442173865,"64":-0.03084651204490374,"65":-0.026491791026956923,"66":0.05410555699907433,"67":0.002781318853572263,"68":0.09196866082069938,"69":-0.02156550588749479,"70":-0.017225721677453967,"71":-0.010975476280384715,"72":-0.0050830103024607255,"73":-0.03300278799476229,"74":-0.07718910952246248,"75":0.08005471161529494,"76":-0.05819515323663883,"77":0.05817929912895066,"78":-0.06791568277005516,"79":-0.11033560464030967,"80":-0.05828127806112491,"81":-0.0016149401938948037,"82":0.10700538640277474,"83":-0.001595199109114622,"84":0.07941399323589922,"85":0.00664455448461793,"86":-0.053417850354639265,"87":-0.09439045082127345,"88":-0.024966397618726995,"89":-0.07000810125803399,"90":-0.0030235716300259495,"91":0.08200208627815532,"92":0.07145904652198075,"93":0.06084188813883217,"94":0.030132564196788832,"95":0.029281691141223615,"96":-0.008515563893755875,"97":0.07078811096169803,"98":-0.021600214412511566,"99":-0.020329672130542136,"100":-0.003962244005966809,"101":0.049860869187473476,"102":0.08671300742524093,"103":-0.04160375304644649,"104":-0.04250430993586415,"105":0.03434585872619754,"106":-0.04475650077237673,"107":0.025337826191409812,"108":-0.04071938167543426,"109":0.03509700676531308,"110":-0.04731740578738933,"111":0.07502339360219605,"112":0.01886988150676467,"113":-0.02475118494705334,"114":-0.053556233074838665,"115":0.036440379239867836,"116":-0.009236650728025328,"117":0.06569845621874772,"118":-0.03551730630187852,"119":0.0019313802798824249,"120":0.11101827461631347,"121":-0.026369950860970052,"122":-0.0825667079632653,"123":0.054386616056224656,"124":0.026284944610177628,"125":0.025862085634267114,"126":-0.024617285194348915,"127":0.04345354001712029,"128":0.07511893207584706,"129":0.12717893968125016,"130":0.08294594424045977,"131":0.06161396232368883,"132":0.0398457088109556,"133":0.029897160987160713,"134":-0.04510413515603512,"135":-0.07154467915377744,"136":-0.036657590756122675,"137":-0.06988180298127789,"138":0.04049323794246096,"139":-0.058098496506875236,"140":-0.07753812906017574,"141":-0.008802124961998718,"142":-0.047022711056690966,"143":-0.007670410768884486,"144":0.0690828900395241,"145":0.08659775160743073,"146":-0.027378812176625755,"147":-0.006063536211844634,"148":0.08515105932129353,"149":-0.050533890824853864,"150":-0.017614173572616954,"151":0.0029436799728820673,"152":0.001473717341612417,"153":-0.05419283210967742,"154":-0.012572829126346963,"155":0.024221337296035848,"156":0.10247309188737751,"157":0.02846898028686077,"158":0.0018120708442472195,"159":-0.05197052544143612,"160":-0.07517900778194858,"161":-0.010275350992522766,"162":-0.002904330120943172,"163":0.041038886118846554,"164":-0.010101483816946286,"165":0.08230059766109418,"166":-0.013058063632690065,"167":-0.02791214792875633,"168":-0.09622362695906458,"169":0.04045924858844978,"170":0.10693930620512859,"171":0.0035183880102347314,"172":0.05763241258613974,"173":0.014335283145783929,"174":0.08751258268824096,"175":-0.02814342842705443,"176":-0.039180292798651026,"177":-0.1191179482587494,"178":0.01806859734293359,"179":-0.00001804121904903615,"180":-0.009681844804570931,"181":-0.03487264278664393,"182":-0.029942274971643437,"183":0.17201188305881668,"184":-0.009698556052298222,"185":0.003658463668064781,"186":-0.044770553670047404,"187":-0.00831304228331444,"188":0.01410425930780063,"189":-0.038660161082044654,"190":0.030041891549082857,"191":0.0687451933630153,"192":0.09674430677028688,"193":0.06029136900002156,"194":0.032759568653873854,"195":0.024866823429694304,"196":0.025658619507732544,"197":0.06590644335160531,"198":0.12048209664058043,"199":-0.004852742982902078,"200":0.024375021108743514,"201":0.049544050727740166,"202":-0.17732613695484048,"203":-0.067970287346009,"204":-0.019005865533805316,"205":0.016437050991415875,"206":-0.04222618319871517,"207":-0.023332909930985635,"208":0.08201455002657781,"209":0.06296421720147458,"210":0.14344728512674085,"211":-0.0045453150022211255,"212":-0.030248040725119857,"213":-0.031173080216024624,"214":-0.0074033572669678985,"215":-0.044262989530368814,"216":-0.00982589567007382,"217":-0.07399471112564797,"218":0.03183384074835576,"219":0.13010340123818048,"220":0.005834349450327853,"221":-0.014495132302494256,"222":0.06532658051350336,"223":-0.08041417646687932,"224":-0.0516762949961174,"225":-0.06695196002228652,"226":-0.044318562789210654,"227":0.055024858218154775,"228":0.0722814761228171,"229":0.006884147336584892,"230":-0.028199876899318653,"231":0.028796856654703797,"232":-0.004172252851735497,"233":0.08136637647379089,"234":-0.03615356091666042,"235":0.06975341406550342,"236":-0.015949508603692115,"237":0.12032504043355668,"238":-0.0890038372349087,"239":-0.07751056537607713,"240":-0.06322985935359658,"241":-0.07110622737767175,"242":0.03142295263211395,"243":0.009026837974376012,"244":-0.15878840208071998,"245":0.03373837898757704,"246":0.11779691275466088,"247":-0.23430915410992822,"248":0.05394041654318285,"249":-0.009051943925891023,"250":0.008728689049146717,"251":-0.0751978143236565,"252":-0.07821413826580902,"253":-0.06766566959282244,"254":-0.018835017185577427,"255":0.1692241828332119,"256":-0.027219380270601605,"257":0.03575114371705554,"258":-0.019666533124719058,"259":-0.030261748833601106,"260":-0.12467809022375975,"261":-0.040105553871475436,"262":0.03179483791152976,"263":0.09807258938471987,"264":0.277413191033663,"265":-0.04054280440081612,"266":-0.014161109136878076,"267":-0.0813007138953928,"268":-0.07041006300762537,"269":-0.03397480995255564,"270":-0.00326242132713196,"271":0.01652688029719601,"272":0.06099400919100634,"273":0.2584870140586208,"274":-0.08394244793924231,"275":-0.11086115265701775,"276":0.027052232580577068,"277":0.032072425707517754,"278":0.0590735010479205,"279":0.07121673368041143,"280":0.0032975609019012314,"281":0.13023364412151675,"282":0.2662517451955579,"283":0.011728475814085435,"284":-0.04991006209090685,"285":-0.05021433064255956,"286":-0.04450845908052695,"287":0.03193077062036985,"288":0.06116191823871468,"289":-0.03432510801729421,"290":0.04222682277181802,"291":0.22344512639491226,"292":-0.1590858033036697,"293":0.031554101218070424,"294":0.054545318936084664,"295":0.04008583215853153,"296":-0.045422631266709666,"297":0.030607644111277508,"298":-0.023050350130237495,"299":-0.02083372677649445,"300":0.21661680427720087,"301":-0.09315208723276183,"302":-0.045750486506352245,"303":-0.08475147523177534,"304":0.037207428312999086,"305":-0.05597838782811322,"306":-0.023133072516243164,"307":0.046537685009853634,"308":0.00624600034060798,"309":0.26431692880930463,"310":-0.14365345411934438,"311":-0.08957904657863364,"312":0.04223802165449089,"313":0.02889010634479606,"314":0.026056946902003872,"315":0.057812769471270835,"316":0.01070943300499086,"317":0.10824297781113541,"318":0.21521288098748434,"319":-0.003466599124344185,"320":0.035058062403268246,"321":0.02251179814167721,"322":0.042848177992197096,"323":0.014840781020784278,"324":-0.024961599265889284,"325":-0.01418457505883661,"326":-0.042599484549531684,"327":0.2820792806262869,"328":-0.05131926861328453,"329":-0.10009558422995325,"330":0.018623930181918512,"331":-0.054557283159677734,"332":-0.05166580085503844,"333":0.040854371849552845,"334":-0.007877472089651505,"335":0.09275318256758004,"336":0.24280555991450486,"337":-0.07271464185467444,"338":-0.0673893391081367,"339":0.02974048164626621,"340":-0.03275535620398545,"341":-0.019342260250009624,"342":0.011780101522393746,"343":0.017086704378537248,"344":-0.03659948914657387,"345":0.1496735584973182,"346":-0.026888479257866034,"347":0.014649158810852107,"348":0.09834172240875746,"349":-0.005775904078478181,"350":0.04880957661870407,"351":-0.04995878908569806,"352":-0.10875972284343502,"353":-0.0002977047130579414,"354":0.2248798853131021,"355":-0.17533920556551863,"356":-0.009487552747501687,"357":0.02855323019543852,"358":0.009740044762648442,"359":0.041982990965463304,"360":0.0167547948313232,"361":-0.0758184231429302,"362":0.056836501919078436,"363":0.09223516216159428,"364":-0.015763836024398042,"365":0.00824870141483807,"366":0.00861742302742965,"367":-0.028934213682126057,"368":-0.1155484083957808,"369":0.008642962430271281,"370":-0.03983987523622839,"371":-0.006970435172565257,"372":-0.020744296459982083,"373":-0.16828830109410686,"374":0.0043982567737308916,"375":-0.04844818585653047,"376":0.058137928492991126,"377":0.004107238269629691,"378":0.020966346241472027,"379":0.04943605517956993,"380":0.018646370849293274,"381":0.08477313741531549,"382":-0.08980079455251183,"383":-0.006516421072441786,"384":-0.045144605961336536,"385":0.04194132211330653,"386":-0.053793240055172706,"387":0.024591577362150275,"388":-0.045028976070397596,"389":-0.005990398467990281,"390":-0.08758940097074142,"391":0.001668050075237596,"392":0.06085362111751576,"393":-0.05773317513062659,"394":0.041860113730187866,"395":0.0003451863934888322,"396":0.023428742023109992,"397":0.07563293299345265,"398":-0.01430662742406475,"399":-0.03874767069979916,"400":-0.04544507550805124,"401":0.008601546223090875,"402":0.0008236610127436134,"403":0.006185010444691583,"404":0.12242748107319153}},{"sx":1,"sy":1,"depth":405,"w":{"0":-0.05923611125000806,"1":-0.07296419362953667,"2":0.009321969607976658,"3":-0.029935575003367323,"4":-0.09129856237133012,"5":0.11172643946134259,"6":0.07389574992769776,"7":-0.02021613960684327,"8":0.028306432281516514,"9":-0.011178480665670319,"10":-0.0465109651146985,"11":-0.014338747786868937,"12":-0.020358512333144826,"13":-0.06570210328197881,"14":-0.007478136786161902,"15":0.027189454712287613,"16":-0.009657994534004769,"17":-0.06536240310393726,"18":-0.019170164970673212,"19":-0.010202417023269152,"20":-0.02042837079776044,"21":-0.053882225159617186,"22":-0.13283735343653136,"23":-0.015304053002373395,"24":0.008684630807271878,"25":-0.1354392536248364,"26":0.09620878311949752,"27":-0.1149371626865505,"28":-0.08340397279318498,"29":0.023105440288957665,"30":0.06230981706728289,"31":-0.0512500859349476,